tree
version=v4
num_class=1
num_tree_per_iteration=1
label_index=0
max_feature_idx=8
objective=binary sigmoid:1
feature_names=Column_0 Column_1 Column_2 Column_3 Column_4 Column_5 Column_6 Column_7 Column_8
feature_infos=[1:238238640] [1:14399] [1:10] [1:105727] [0:70053368] [0:71463360] [0:6005291] [1:20917.3046875] [0.00069444446125999093:0.99993056058883667]
tree_sizes=6486 6698 6703 6709 6711 6716 6701 6723 6721 6729 6728 6743 6740 6703 6745 6712 6740 6705 6725 6751 6698 6695 6721 6763 6704 6687 6717 6760 6732 6739 6743 6714 6729 6726 6731 6750 6722 6745 6725 6742 6713 6740 6716 6759 6760 6711 6715 6733 6713 6749 6746 6721 6744 6699 6749 6750 6735 6721 6753 6738 6751 6706 6751 6743 6757 6758 6721 6731 6720 6702 6729 6735 6749 6747 6732 6761 6779 6779 6760 6745 6763 6735 6786 6733 6766 6776 6743 6673 6722 6747 6721 6743 6729 6701 6737 6743 6723 6715 6745 6743 6713 6759 6710 6750 6709 6768 6782 6705 6720 6700 6717 6717 6726 6694 6749 6748 6724 6748 6747 6738 6704 6724 6721 6744 6708 6785 6751 6687 6694 6738 6739 6711 6707 6750 6740 6766 6728 6742 6734 6736 6778 6749 6775 6727 6761 6735 6761 6714 6734 6717 6735 6719 6733 6733 6750 6731 6755 6709 6761 6735 6704 6788 6727 6700 6720 6728 6741 6746 6726 6752

Tree=0
num_leaves=63
num_cat=0
split_feature=4 6 6 1 1 1 7 1 8 4 1 8 0 8 1 8 3 4 6 1 0 6 7 3 1 6 3 8 6 0 8 1 1 8 8 7 1 4 8 4 3 7 6 8 1 8 1 8 8 3 8 1 0 8 6 7 6 1 8 8 4 8
split_gain=6766.84 1260.67 418.36 339.818 160.435 71.3743 105.505 57.9265 63.7352 51.6312 53.2104 49.0283 33.8764 33.954 87.0108 36.5123 33.8061 46.7825 40.4287 39.4351 31.5759 45.8613 27.9594 25.6968 23.2001 25.6278 42.5652 21.1808 20.3974 33.9567 16.4346 24.6106 16.3054 32.6879 15.6533 17.1821 14.8114 13.7097 26.4232 13.385 12.9997 11.9949 11.9648 11.6542 13.3299 11.1679 22.9754 12.1745 10.6667 11.0763 8.67946 8.93467 8.60207 11.8689 8.35598 11.8282 7.76731 7.22386 36.471 7.18235 7.58208 6.70336
threshold=2.5000000000000004 2.9220647811889653 0.5734020769596101 26.500000000000004 7.5000000000000009 106.50000000000001 1.0372685194015505 9.5000000000000018 0.0028852513059973721 1.0000000180025095e-35 3.5000000000000004 0.010334683582186701 94.500000000000014 0.0013541666558012368 15.500000000000002 0.0055208334233611831 2.5000000000000004 73.500000000000014 0.083382938057184233 47.500000000000007 58.500000000000007 29.968750000000004 1.0771356225013735 1.5000000000000002 1514.5000000000002 695.00000000000011 6.5000000000000009 0.0076736111659556636 1.1900303363800051 11.500000000000002 0.002631172770634294 46.500000000000007 3.5000000000000004 0.0013541666558012368 0.001755401259288192 1.7858148813247683 702.00000000000011 201.50000000000003 0.020173611119389537 60.500000000000007 1.5000000000000002 7.3304686546325692 0.33360390365123754 0.0031442901818081741 33.500000000000007 0.0048958333209156999 17.500000000000004 0.00091435184003785263 0.0031442901818081741 13.500000000000002 0.0069791667629033336 116.50000000000001 16.500000000000004 0.0036361882230266933 0.96004602313041698 1.0032225251197817 0.49741277098655706 35.500000000000007 0.0027430555783212189 0.054791666567325599 129.50000000000003 0.0059275794774293908
decision_type=2 2 2 2 2 2 2 2 2 2 2 2 2 2 2 2 2 2 2 2 2 2 2 2 2 2 2 2 2 2 2 2 2 2 2 2 2 2 2 2 2 2 2 2 2 2 2 2 2 2 2 2 2 2 2 2 2 2 2 2 2 2
left_child=9 2 16 7 40 6 28 32 23 48 -11 12 13 -8 -15 30 17 22 41 34 27 39 52 -9 25 26 37 -5 -6 -30 -16 43 -3 -34 -20 42 -27 38 -23 -22 -4 -18 -36 -32 -45 46 47 -12 49 -1 -21 -52 -2 -54 55 -7 -49 58 -14 60 -53 -10
right_child=1 3 4 20 5 54 11 8 61 10 45 -13 57 14 15 -17 18 -19 19 50 21 24 -24 -25 -26 36 -28 -29 29 -31 31 -33 33 -35 35 -37 -38 -39 -40 -41 -42 -43 -44 44 -46 -47 -48 56 -50 -51 51 59 53 -55 -56 -57 -58 -59 -60 -61 -62 -63
leaf_value=0.84883714466846982 0.95350197449589014 0.8584402768241105 0.97949212214427561 1.0042203062850397 1.0709713082992884 1.0057946225154977 1.0595433643754635 1.064668410638606 0.91845485188839404 0.85714057423154721 0.94366071440354515 0.87364760084790438 1.0633228467046991 0.89194081391250224 1.0717261111412917 0.9339638785926937 0.88137725683515622 0.84193685328900125 1.0212246773374276 1.0655383842659676 0.99521732906740434 1.0012968676748712 0.90365934641922807 0.95876542291062905 1.0419051816233531 0.89951648060269995 1.0688575125534359 0.90557688304552331 0.93520707931989078 1.0627525726850096 1.0327933584907114 1.0793851416082145 0.9846238341741842 0.88171826671035591 1.0333025954874759 0.90365934641922807 0.99153447468042222 1.0159765894155879 0.87051151501391366 1.066780270714409 0.90582939728877265 0.95975267809451703 0.93141203017950169 0.91180773841044915 1.0025771591111281 0.86309334181431485 0.9990654901857049 0.91136252720623345 0.83740423026322719 0.89194081391250224 0.96820278680445571 1.0195745787212236 1.0793851416082145 0.98108906245320004 1.0751943128239898 1.0647906708363117 0.87209141848259275 1.0664714161032858 0.90724656531379377 0.99803230684054522 1.0793851416082145 0.88321976317393924
leaf_weight=464.41145007312298 6.5510423034429612 59.097145959734917 9.6314065158367175 9.1428608149290103 212.36173406243324 9.3384533226490003 20.781050592660904 9.3393244594335574 29.038082733750343 209.65023756027222 14.177407830953596 6.0125095546245566 17.113908857107166 18.33135299384594 17.945394799113274 11.341752037405966 10.412034273147585 10.997940659523008 7.0895750522613517 9.9261019825935346 8.1648982763290388 7.0404591411352184 12.514435946941374 14.813301265239714 14.668566942214964 14.518605798482897 13.055582106113432 13.443282574415205 7.6263655275106457 16.527131333947182 8.8499076217412966 9.9752178937196714 8.7025598883628827 68.142646089196205 5.9651359170675295 15.643044933676718 6.2580891102552405 6.5027975291013709 8.5543410181999189 32.712193563580513 15.838637441396711 9.19110558927059 5.5730797648429871 7.3816571086645153 8.9472683072090131 13.980073049664496 6.8448666334152213 24.540326192975044 245.37451441586018 15.398336514830588 8.653443977236746 13.78796508908272 5.4765902161598188 6.991343230009079 459.15036289393902 94.17561462521553 25.858615562319756 31.929823532700539 4.7907097339630118 15.205357417464255 8.6060703396797162 25.223593264818192
leaf_count=1012 23 136 37 38 1063 39 101 46 89 479 48 15 84 50 90 37 27 23 31 49 33 29 36 53 68 41 65 39 25 81 40 51 34 177 27 45 25 28 21 162 46 33 18 22 37 33 28 73 499 42 32 60 28 27 2323 464 64 158 14 62 44 66
internal_value=0.952254 1.02022 1.04565 0.936978 1.05755 1.06082 1.04467 0.897927 0.93215 0.853059 0.870693 1.01378 1.01913 1.0024 0.988057 1.0154 0.96859 0.930732 0.98322 0.997329 0.999417 1.01034 0.961701 0.999716 0.985937 0.971258 0.997278 0.945508 1.06602 1.02248 1.03279 1.01292 0.878186 0.893372 0.955059 0.937801 0.927233 0.954988 0.929556 1.05249 0.933685 0.918124 0.984088 0.986587 0.961544 0.903961 0.911961 0.902728 0.845884 0.85022 1.02311 1.01401 0.999892 1.02427 1.0723 1.05947 0.891213 1.0513 1.02919 1.02455 1.04256 0.902076
internal_weight=2509.29 1489.05 1140.63 348.418 988.05 962.58 399.916 214.357 78.4143 1020.24 295.052 163.401 157.388 103.554 82.7726 64.4412 152.584 42.5314 110.053 90.4498 134.062 111.476 31.5334 24.1526 70.5984 55.9299 35.1532 22.5861 236.515 24.1535 53.0994 35.1541 135.942 76.8452 34.2708 27.1813 20.7767 22.0976 15.5948 40.8771 25.47 19.6031 11.5382 25.1788 16.3289 85.4013 71.4212 64.5763 725.184 479.81 56.1789 46.2528 19.019 12.4679 562.664 103.514 50.3989 53.8344 21.9046 37.5994 22.394 54.2617
internal_count=8770 6492 5342 1150 4777 4694 1868 601 254 2278 725 699 684 428 327 277 565 137 428 368 549 472 114 99 277 209 143 77 1169 106 240 150 347 211 121 90 66 78 50 195 83 60 45 99 59 246 213 185 1553 1054 247 198 78 55 2826 503 137 256 98 166 104 155
is_linear=0
shrinkage=1


Tree=1
num_leaves=63
num_cat=0
split_feature=2 4 6 2 2 8 2 8 8 6 6 8 2 7 4 7 7 8 5 7 2 8 7 2 6 0 8 6 8 2 8 4 7 6 0 4 7 8 6 5 6 7 4 6 8 6 8 2 8 7 2 7 6 7 7 8 0 8 7 5 4 8
split_gain=7388.99 440.206 265.214 143.689 71.351 50.3324 47.315 36.352 32.8706 31.461 24.9376 23.5073 22.3519 22.3182 40.1367 19.9256 19.5725 18.4334 18.1558 17.7317 16.709 16.6182 16.5683 14.6342 14.3641 14.1376 13.9003 12.6796 12.4451 11.7479 11.5041 13.5775 13.6464 11.0928 11.0175 18.7508 10.5633 10.3467 10.2002 10.8785 10.1299 9.76996 18.4989 8.39891 8.06455 8.05301 7.85729 7.45619 7.35146 7.24616 7.03099 7.40373 6.81144 6.29818 6.02505 6.0171 15.6288 14.4066 4.99324 18.535 6.15793 4.95199
threshold=6.5000000000000009 2.5000000000000004 0.5564388930797578 2.5000000000000004 8.5000000000000018 0.035054013133049018 2.5000000000000004 0.008807870093733074 0.0048958333209156999 1.029481887817383 33.500000000000007 0.15131944417953494 9.5000000000000018 1.0012370944023135 22.500000000000004 10.009571075439455 9.0094337463378924 0.01724206376820803 1.0000000180025095e-35 2.0105001926422124 5.5000000000000009 0.0043526787776499995 23.651515007019047 5.5000000000000009 0.38284313678741461 103.50000000000001 0.18282985687255862 0.15335620194673541 0.0015354938223026695 4.5000000000000009 0.094826389104127898 60.500000000000007 1.1805263161659243 0.73363915085792553 25.500000000000004 11.500000000000002 1.7231800556182864 0.0024112655082717542 0.0069447793066501626 2.5000000000000004 0.70209762454032909 1.264831602573395 5.5000000000000009 0.38284313678741461 0.042395833879709251 0.61976599693298351 0.0020013503963127737 1.5000000000000002 0.10166666656732561 1.4992877244949343 4.5000000000000009 1.1651446223258974 44.662601470947273 2.8180079460144047 1.2936556935310366 0.0018799602985382082 13.500000000000002 0.0013541666558012368 1.1861083507537844 3.5000000000000004 1.5000000000000002 0.01954571716487408
decision_type=2 2 2 2 2 2 2 2 2 2 2 2 2 2 2 2 2 2 2 2 2 2 2 2 2 2 2 2 2 2 2 2 2 2 2 2 2 2 2 2 2 2 2 2 2 2 2 2 2 2 2 2 2 2 2 2 2 2 2 2 2 2
left_child=1 6 4 10 5 8 18 38 28 17 53 16 33 20 29 19 44 23 37 30 55 -21 -17 41 -6 -25 36 -10 -2 34 31 32 -16 40 35 -15 -26 -1 39 -8 45 42 -5 -30 52 -4 -43 -20 -7 -31 58 -52 -12 -3 -41 57 -57 -11 59 60 -40 -54
right_child=2 3 12 9 24 48 7 -9 27 13 11 -13 -14 14 15 22 -18 -19 47 21 -22 -23 -24 25 26 -27 -28 -29 43 49 -32 -33 -34 -35 -36 -37 -38 -39 50 54 -42 46 -44 -45 -46 -47 -48 -49 -50 -51 51 -53 61 -55 -56 56 -58 -59 -60 -61 -62 -63
leaf_value=-0.13445267881083031 -0.11632035439200882 -0.11779866929771531 -0.007124760202735711 -0.089372873998251834 0.050262550914015575 -0.08570081311118187 -0.074064153753643142 -0.15528157794436112 -0.039735849592944628 4.0980175505135243e-05 -0.0035614399217267709 0.0056340591686503596 0.063325493192752894 -0.11360875180481422 0.0083446840094307372 -0.13477226869249587 -0.13311144070710954 -0.14246977356681512 -0.15812406955181954 -0.04480504474029888 0.067888433587744684 0.056630697938137721 -0.034506619978070717 -0.063099026061884819 0.053551427924280394 0.024003536346482592 -0.072657038925052195 0.055770638835202724 -0.0083856932875364353 -0.035648466334100605 -0.096402353770360716 0.025016525337075636 -0.080340827829003633 0.048724328094727612 -0.14803899152018343 -0.014558315668500006 -0.022120382892529156 -0.1545791049653292 -0.087998511797412859 -0.14083219089640731 -0.055321295903752246 -0.068580280428738011 0.018392246407116366 -0.083936131586544616 -0.11686351771544548 0.055653553405357492 -0.11947928984466488 -0.14499976243121601 -0.14951534558026588 -0.095251084710175196 -0.087587797766301642 -0.023504682491213215 -0.096085625037790459 -0.14174856107729208 -0.11177128655500518 0.038973962979063997 -0.043235038957468247 -0.0913698432563739 -0.12588277527827643 -0.016427149055203531 -0.13561867326206634 -0.033135781705030939
leaf_weight=344.04406787455082 8.1313467323780078 128.32516673207283 9.1933772116899544 14.779744178056719 22.792723760008812 7.0738161951303509 11.336433246731756 52.703178450465202 5.0323933362960842 7.9740869998931911 5.5867514908313813 6.5535401552915564 722.04925027489662 17.960740178823475 6.8089108616113725 7.4175140708684948 19.566279992461205 11.055959880352018 259.83966659009457 6.007084563374522 5.2345101833343497 12.316695958375929 9.268458425998686 19.811934933066372 9.3366031795740181 6.0907585173845282 5.7847236990928641 11.230723366141317 8.8886955678462964 13.107409462332727 6.6714208573102942 9.5769680589437467 11.951022505760191 161.45358750224113 10.723128616809843 6.5097557902336112 9.1133777499198896 78.410155639052391 13.858316153287888 36.905909821391106 4.4600050151348105 10.943983197212217 5.4509626179933539 6.2760397195816031 5.8882890790700904 11.496273398399351 24.683007374405861 185.46072499454021 12.467091247439383 8.3465845286846143 19.205244734883312 5.8892809152603141 7.4549280107021314 34.92025388777256 34.51561227440834 9.5505189299583453 14.648848846554754 9.381125867366789 18.203717142343521 6.3474870175123206 13.308017387986183 5.3778379261493683
leaf_count=742 21 312 39 45 111 21 33 98 18 33 22 28 3764 46 29 18 44 26 478 21 27 62 34 67 46 27 18 56 36 48 20 44 37 804 23 25 36 147 39 76 16 35 24 19 15 58 62 373 25 24 56 22 21 74 84 46 52 27 43 24 29 20
internal_value=-0.0544157 -0.122732 0.0506032 -0.0828878 -0.0241909 -0.060762 -0.140438 -0.119278 -0.0283319 -0.0583802 -0.113428 -0.0826949 0.0593389 -0.045808 -0.0567085 -0.0313924 -0.0958887 -0.0818752 -0.145614 -0.016473 -0.0162983 0.023377 -0.0790783 -0.0736814 0.0217685 -0.0426177 -0.00503014 0.0262175 -0.0664131 -0.088 -0.037331 -0.0234237 -0.0481525 0.0439129 -0.105778 -0.0872589 0.0161733 -0.138188 -0.107387 -0.119566 0.013025 -0.0880864 -0.0603366 -0.0396528 -0.0659267 0.0277582 -0.103844 -0.152658 -0.126414 -0.0588366 -0.0942652 -0.0725485 -0.0496434 -0.122922 -0.126788 -0.0269031 -0.0107904 -0.0493699 -0.104803 -0.0933525 -0.111326 -0.0697052
internal_weight=2574.75 1559.97 1014.78 479.944 106.128 59.1001 1080.03 212.273 39.5592 266.271 213.673 50.4276 908.652 173.455 126.666 70.0181 43.8741 92.8164 867.755 53.3321 46.7891 18.3238 16.686 81.7604 47.0274 25.9027 24.2347 16.2631 23.2961 56.6476 35.0083 28.3369 18.7599 186.603 35.1936 24.4705 18.45 422.454 159.57 82.758 25.1497 55.8577 20.2307 15.1647 24.3078 20.6897 35.627 445.3 19.5409 21.454 76.8121 25.0945 18.4195 163.245 71.4215 41.5546 24.1994 17.3552 51.7175 33.5138 27.1663 12.8328
internal_count=8770 3682 5088 1438 407 196 2244 504 150 902 536 150 4681 616 431 265 122 286 1740 213 185 83 52 260 211 94 100 74 76 166 130 110 66 917 94 71 82 889 406 193 113 166 69 55 78 97 97 851 46 72 213 78 63 386 160 158 98 60 135 92 68 41
is_linear=0
shrinkage=0.05


Tree=2
num_leaves=63
num_cat=0
split_feature=2 4 6 2 2 8 2 8 8 6 2 6 8 7 4 7 3 2 7 8 3 4 7 2 0 6 6 8 2 4 6 8 7 0 4 4 0 2 7 4 6 8 8 3 4 8 8 7 8 8 0 0 8 3 7 4 6 0 3 6 6 7
split_gain=6350.55 351.026 249.525 117.512 62.7121 41.6657 36.8652 30.6947 28.798 26.1273 22.0138 19.9059 20.0246 19.11 33.6262 16.9908 23.1528 15.2893 14.6637 14.5679 13.8175 22.2244 13.4079 12.1158 12.2956 11.9648 10.5457 10.2156 9.56455 9.54918 9.08319 8.94037 8.8223 8.62941 15.4666 8.36187 11.3859 8.02033 7.96823 15.7359 7.55355 7.38057 6.85583 11.5884 10.8089 6.90279 6.06057 6.02067 5.81717 5.37282 5.32047 14.1149 12.3637 5.23892 4.91212 4.59644 4.50271 5.92568 4.22653 4.12923 4.12397 4.06627
threshold=6.5000000000000009 2.5000000000000004 0.5564388930797578 2.5000000000000004 8.5000000000000018 0.035054013133049018 2.5000000000000004 0.0045331791043281564 0.0048958333209156999 1.029481887817383 9.5000000000000018 33.500000000000007 0.11677083373069765 1.0012370944023135 22.500000000000004 10.009571075439455 8.5000000000000018 5.5000000000000009 9.0094337463378924 0.01724206376820803 9.5000000000000018 11.500000000000002 23.651515007019047 5.5000000000000009 103.50000000000001 0.18898809701204303 0.73363915085792553 0.0015354938223026695 4.5000000000000009 90.500000000000014 0.70209762454032909 0.0016920194029808047 1.623197674751282 25.500000000000004 11.500000000000002 1.0000000180025095e-35 17.500000000000004 7.5000000000000009 1.264831602573395 5.5000000000000009 0.61976599693298351 0.33336806297302252 0.094826389104127898 2.5000000000000004 60.500000000000007 0.0058487653732299813 0.036215279251337058 1.4992877244949343 0.10166666656732561 0.0027430555783212189 10.500000000000002 13.500000000000002 0.0013541666558012368 6.5000000000000009 2.8180079460144047 4.5000000000000009 0.79775699973106395 45.500000000000007 5.5000000000000009 15.20952367782593 1.9963099360466006 1.2936556935310366
decision_type=2 2 2 2 2 2 2 2 2 2 2 2 2 2 2 2 2 2 2 2 2 2 2 2 2 2 2 2 2 2 2 2 2 2 2 2 2 2 2 2 2 2 2 2 2 2 2 2 2 2 2 2 2 2 2 2 2 2 2 2 2 2
left_child=1 6 4 11 5 8 31 35 27 19 26 54 18 17 28 16 42 50 46 23 21 -6 -17 38 56 -10 30 -2 33 -18 40 60 -23 34 61 58 -37 -29 39 -5 -4 -22 43 -16 45 -45 53 -30 -7 -40 52 -52 -11 -13 55 -3 57 -25 -8 -53 -1 -15
right_child=2 3 10 9 20 48 7 -9 25 13 -12 12 -14 14 15 22 29 -19 -20 -21 41 32 -24 24 -26 -27 -28 37 47 -31 -32 -33 -34 -35 -36 36 -38 -39 49 -41 -42 -43 -44 44 -46 -47 -48 -49 -50 -51 51 59 -54 -55 -56 -57 -58 -59 -60 -61 -62 -63
leaf_value=-0.12874287994038949 -0.10518401981896795 -0.11951466715576836 -0.0067449312774655688 -0.081560396758210474 0.053337555004564274 -0.078480091165793298 -0.11122921574588798 -0.133466856221027 -0.019446278420894927 3.893448182047183e-05 0.062151399081534844 -0.074680548016786572 -0.00180079238124699 -0.12359355319403859 0.029558201079770925 -0.12077649960623094 -0.010423460696153429 0.066715154103225413 -0.12089199282371198 -0.12720523437379413 0.067536446577787165 -0.016538660812862857 -0.0322781793962853 -0.0097718530594710171 0.023058473006877328 0.066940722801979033 0.047440482243585005 -0.067599040473417679 -0.03332742784276866 0.066902629474599365 -0.051195899974372988 -0.13788665549138587 -0.09894964095302923 -0.13231786476334528 -0.013742245775197818 -0.090083489114953341 -0.031008228609353667 0.0054779746429437608 -0.069493221403489569 0.017624036163612553 0.054370596199876921 0.0038361042969054849 -0.080689162918566759 -0.033219092069029857 0.0082611695512782111 -0.098777118010475298 -0.10595585926775804 -0.086833707152313755 -0.13403309925879528 -0.1089108861026364 0.037940884225826602 -0.068445468777259905 -0.083962285958712093 -0.021309420392240808 -0.12735898032568921 -0.10005209326552821 -0.095286122315338825 -0.073723527183913048 -0.077515822672389434 -0.015725940752256497 -0.11482245590874568 -0.076761281571461892
leaf_weight=552.17538307607174 8.5314507335424441 46.274623706936836 9.2247058749198967 15.369417518377306 9.7159936875104922 7.3313369303941753 62.997678712010384 77.908747658133507 7.7443744689226177 7.9739400297403362 699.4783634096384 9.44152376055718 7.7597545981407157 10.518006846308714 7.0216304957866695 7.8509719669818905 6.9313091635704067 5.0645472705364218 19.792748540639877 11.744020804762838 15.923925429582598 9.620706230401991 9.4091524779796583 6.9028355479240471 6.0250785350799552 8.3082277029752714 157.6297013759613 8.9668930023908597 13.313710242509844 9.4169521778821927 4.5752995312213889 304.67799834907055 4.9023241847753516 11.378692016005514 6.5504356920719138 60.816720500588417 9.4196995049715024 6.4593443423509589 13.673405185341833 5.4053243398666373 11.187060073018072 6.3647293746471396 7.3009038865566245 7.941580578684813 6.9522546231746665 8.1214449852704984 6.1685199588537207 8.6884346902370435 13.191239058971403 23.507108494639397 9.3950007408857363 6.9547127783298475 9.7202079594135267 8.9629084169864637 36.867301180958748 88.076332211494446 5.8494654148817053 7.6215961277484894 10.905864238739012 7.9713564664125443 58.878014206886292 8.2865900397300702
leaf_count=1069 21 99 39 45 49 21 138 146 30 33 3764 28 32 23 32 18 28 27 42 26 83 38 34 27 27 44 804 28 48 50 16 545 14 23 25 158 33 27 41 24 58 27 22 28 31 22 15 24 25 56 46 22 27 33 74 213 17 23 29 30 126 23
internal_value=-0.0506234 -0.111154 0.0493666 -0.0760613 -0.0227172 -0.0562671 -0.126458 -0.108181 -0.0265577 -0.0540473 0.0581155 -0.102956 -0.0759023 -0.0426392 -0.0525449 -0.0293786 -0.0155045 -0.0153539 -0.088863 -0.075031 0.0209314 -0.00519697 -0.0725327 -0.0677672 -0.0396905 0.0252644 0.0426567 -0.0612806 -0.0805271 0.034118 0.0124781 -0.13089 -0.0443569 -0.0961424 -0.0799078 -0.0945139 -0.0821607 -0.0369999 -0.0805563 -0.0557539 0.0267506 0.0493462 -0.0372316 -0.0266687 -0.0438227 -0.0663651 -0.0630646 -0.0544565 -0.114188 -0.0944148 -0.0252466 -0.0100703 -0.0461068 -0.048689 -0.111192 -0.106756 -0.0582469 -0.0433301 -0.106254 -0.0402903 -0.127402 -0.102956
internal_weight=2623.14 1633.98 989.156 496.204 107.061 60.5329 1137.78 222.049 40.0103 272.86 882.095 223.344 52.1255 176.762 129.682 70.9462 53.6861 47.0798 44.3657 96.0983 46.5277 24.239 17.2601 84.3542 26.399 16.0526 182.617 23.9577 58.7359 16.3483 24.9871 915.731 14.523 36.7337 25.355 144.14 70.2364 15.4262 57.9553 20.7747 20.4118 22.2887 37.3378 30.0369 23.0153 16.063 24.573 22.0021 20.5226 37.1805 42.0152 24.3211 17.6941 18.4044 171.218 134.351 20.3739 14.5244 73.9035 14.9261 611.053 18.8046
internal_count=8770 3682 5088 1438 407 196 2244 504 150 902 4681 536 150 616 431 265 213 185 118 286 211 101 52 260 94 74 917 76 166 78 113 1740 52 94 71 358 191 55 166 69 97 110 135 113 81 50 76 72 46 97 158 98 60 61 386 312 67 50 167 52 1195 46
is_linear=0
shrinkage=0.05


Tree=3
num_leaves=63
num_cat=0
split_feature=2 2 6 6 2 6 1 2 1 2 1 6 6 8 2 7 1 6 1 8 7 8 8 5 5 1 5 6 7 7 8 2 5 2 2 6 6 8 5 5 5 1 6 1 6 5 5 1 6 1 6 8 1 7 7 1 7 6 7 3 7 6
split_gain=5525.75 251.718 234.935 142.451 55.4595 49.4736 35.1503 26.1106 25.9486 21.7381 20.9904 20.2253 19.2353 17.2199 13.696 13.4123 14.0255 12.9502 12.0735 12.0725 12.0589 14.1995 11.6376 11.4056 10.5467 10.1121 10.2416 10.022 9.46453 9.22789 8.75205 8.71809 10.8909 8.63389 8.38447 8.16207 7.08912 7.08777 6.95978 6.86357 11.288 17.5084 6.73501 7.76821 11.9868 5.99561 5.97576 5.76652 5.58715 5.96668 5.3848 4.80489 4.67906 6.51657 4.64025 4.52267 4.34004 4.28975 7.93711 4.11169 7.47482 3.89789
threshold=6.5000000000000009 2.5000000000000004 0.5564388930797578 0.1143070198595524 8.5000000000000018 4.0115830898284921 403.50000000000006 4.5000000000000009 17.500000000000004 9.5000000000000018 25.500000000000004 11.088889122009279 2.5859929323196416 0.0043526787776499995 7.5000000000000009 1.0560204982757571 7.5000000000000009 0.38284313678741461 13.500000000000002 0.18282985687255862 1.3329597711563113 0.004641203675419093 0.15131944417953494 1.0000000180025095e-35 1.5000000000000002 17.500000000000004 2.5000000000000004 0.73363915085792553 1.7231800556182864 1.4467719197273257 0.0097569446079432982 5.5000000000000009 173.50000000000003 1.5000000000000002 1.5000000000000002 0.70209762454032909 0.61976599693298351 0.0024112655082717542 24.500000000000004 5.5000000000000009 1.0000000180025095e-35 199.50000000000003 1.476439952850342 16.500000000000004 0.38284313678741461 3.5000000000000004 15.500000000000002 9.5000000000000018 0.88509690761566173 64.500000000000014 7.9661016464233407 0.10166666656732561 100.50000000000001 9.0094337463378924 1.4992877244949343 120.50000000000001 1.4291146397590639 0.52291345596313488 1.133697032928467 91.500000000000014 1.7858148813247683 1.3281323909759524
decision_type=2 2 2 2 2 2 2 2 2 2 2 2 2 2 2 2 2 2 2 2 2 2 2 2 2 2 2 2 2 2 2 2 2 2 2 2 2 2 2 2 2 2 2 2 2 2 2 2 2 2 2 2 2 2 2 2 2 2 2 2 2 2
left_child=1 5 4 13 6 23 8 11 -2 27 34 15 31 25 -10 16 61 -6 24 28 30 -22 55 37 -18 26 -3 35 -19 -17 -13 32 38 -25 50 36 -4 -1 42 40 41 -14 43 44 -9 -31 -41 -46 57 -50 54 -8 53 -35 -7 59 -28 58 -33 60 -12 -5
right_child=2 3 9 7 17 10 51 12 14 -11 22 20 39 -15 -16 29 18 19 -20 -21 21 -23 -24 33 -26 -27 56 -29 -30 45 -32 48 -34 52 -36 -37 -38 -39 -40 46 -42 -43 -44 -45 47 -47 -48 -49 49 -51 -52 -53 -54 -55 -56 -57 -58 -59 -60 -61 -62 -63
leaf_value=-0.11042862279346144 -0.096424835317171831 -0.053236127663061621 -0.0063866568155114588 -0.083484672588651387 0.048024376968351878 -0.06395489695147473 -0.072290118441422316 -0.11210872072154626 -0.039598951765047651 0.061052138584038608 -0.065578047236197409 0.036175240728031056 0.044956572347332163 -0.12345502937045499 0.02756002610706897 -0.10379014735400766 0.036083198889101324 0.051630106331258335 -0.076052514006948999 -0.066832956886586387 -0.10587905335891733 -0.023113765877652338 0.0054521661720370734 -0.12951820358610952 -0.051890094297427636 -0.045757324301694366 -0.11664503593059482 0.046201000494337792 -0.020489789472357644 -0.097568099302297151 -0.033690110110167176 -0.065404396790285479 -0.12433335459940908 -0.11651847139651549 -0.081389622230619435 -0.047523675527420366 0.053144014144195562 -0.12575083878254881 -0.012272257825351051 0.06836979964548788 -0.059867138289130511 -0.04464157190676124 -0.099216770123911169 -0.010148276554265017 -0.010856464080371355 -0.056966567625759537 -0.0091386783007120463 -0.073522812240131186 0.010332665892219838 -0.052512759903375811 -0.11649198063271315 -0.12191760841263624 -0.13861454897764389 -0.080962664181260302 -0.10857569997333175 -0.10083863534711623 -0.090165634534970007 -0.069369203575035482 0.0045722096419642247 -0.092682194630804404 0.010488480048706665 -0.050025465691619954
leaf_weight=418.17516732215881 9.6619200855493528 10.655650496482847 9.2542956620454841 29.525214895606041 21.861576557159424 10.822565317153932 7.5550131350755718 8.8907456845045107 13.733090236783029 677.03912691771984 10.877680435776716 7.8146623075008419 11.148609697818758 92.182776629924774 16.974915981292725 41.631135508418083 8.9122169464826602 8.9917038232088142 7.4140993803739539 5.9627326726913443 9.222144082188608 11.82968984544277 6.541999638080596 286.51814876496792 5.5151349902153006 10.266069754958151 39.006635680794716 153.86221566796303 9.2074048370122892 13.583052501082419 10.512778297066687 7.9446912109851899 6.2500196248292914 190.83326490223408 46.419385194778442 4.6795778870582572 10.880815684795378 92.098118275403976 8.2205513715744001 4.6786614060401899 11.621779188513754 10.671482637524603 9.6562557220458967 8.3622701466083509 8.2570612579584104 27.504020735621452 5.308068186044693 6.6095461696386328 11.57814095914364 5.6052642911672583 56.355866312980652 13.760958865284918 21.544678270816803 13.819813311100004 12.621382266283034 7.8314668387174597 25.650413691997528 11.768107563257216 8.2708829641342145 5.696267992258071 4.593457579612731 12.343373566865919
leaf_count=825 23 30 39 74 111 29 21 20 48 3764 31 34 52 166 79 95 44 46 21 18 22 45 28 478 17 31 75 804 36 32 37 23 13 358 115 16 58 158 31 24 38 36 25 31 30 83 22 19 49 19 112 25 34 32 26 18 60 36 33 13 19 39
internal_value=-0.0473986 -0.101794 0.0481983 -0.0723646 -0.0213958 -0.114423 -0.0523862 -0.0529589 -0.0249601 0.0569582 -0.0887286 -0.0653643 -0.0370449 -0.108461 -0.0024745 -0.073919 -0.0566763 0.0201412 -0.0241953 -0.00508745 -0.0335542 -0.0593706 -0.0547862 -0.118486 0.0024537 -0.0923095 -0.0986551 0.0414454 0.0151428 -0.0871995 -0.00390013 -0.0489686 -0.0621056 -0.123753 -0.0982861 0.0119589 0.0257831 -0.113194 -0.0543266 -0.00920087 -0.0200632 0.0011371 -0.0626019 -0.0515942 -0.0661827 -0.0703891 0.0271731 -0.0387173 -0.0326092 -0.0101676 -0.108115 -0.104328 -0.116451 -0.114117 -0.0879771 -0.0683756 -0.10614 -0.0463894 -0.0297123 -0.056365 -0.0429935 -0.0736205
internal_weight=2656.59 1693.16 963.425 508.411 107.709 1184.75 61.6859 330.65 40.3699 855.716 161.76 185.808 144.842 177.762 30.708 146.428 63.71 46.0234 21.8415 24.1618 39.3793 21.0518 35.5409 1022.99 14.4274 85.5788 75.3127 178.677 18.1991 82.7182 18.3274 101.414 56.2464 512.716 126.219 24.8147 20.1351 510.273 49.9964 43.4286 33.4419 21.8201 41.7759 32.1196 23.7574 41.0871 9.98673 14.8666 45.1671 17.1834 79.7998 21.316 226.198 204.653 23.4439 28.9989 64.657 27.9837 16.2156 21.1674 15.4711 41.8686
internal_count=8770 3682 5088 1406 407 2276 196 1044 150 4681 391 543 501 362 127 405 195 211 82 100 138 67 109 1885 61 196 165 917 82 210 71 329 169 902 282 113 97 983 156 172 126 88 125 100 69 115 46 49 160 68 167 46 424 390 55 81 135 92 56 63 50 113
is_linear=0
shrinkage=0.05


Tree=4
num_leaves=63
num_cat=0
split_feature=2 2 2 2 5 5 7 5 1 2 0 0 1 2 7 0 8 5 1 5 5 5 5 7 5 2 2 1 0 5 0 8 5 2 1 3 5 7 0 5 7 7 1 1 0 0 7 7 8 7 8 5 5 3 7 3 0 2 7 2 1 7
split_gain=4853.74 213.516 138.109 48.4655 46.4278 36.5628 26.368 26.0344 20.9242 18.6978 17.7735 19.6169 14.3456 13.736 12.7952 13.7511 11.5333 11.3584 10.3764 23.0727 9.94897 9.37473 10.3772 9.33793 12.1897 9.23287 9.06647 15.5591 18.1652 9.0062 20.7375 8.48229 8.31373 7.72315 7.65644 7.15797 7.1479 5.55287 11.1776 22.9742 5.41364 7.07396 9.33735 8.60892 6.52436 5.23659 8.93291 8.6532 4.91889 9.88262 7.18842 4.80065 5.8168 4.78027 6.91686 4.72593 8.38684 5.46111 4.28094 4.26098 4.22165 4.34047
threshold=6.5000000000000009 2.5000000000000004 8.5000000000000018 5.5000000000000009 13.500000000000002 862.50000000000011 2.1680181026458745 1.0000000180025095e-35 11.500000000000002 7.5000000000000009 151.50000000000003 141.50000000000003 8.5000000000000018 3.5000000000000004 1.1113591790199282 58.500000000000007 0.037881944328546531 1.0000000180025095e-35 170.50000000000003 1.5000000000000002 2.5000000000000004 2.5000000000000004 5.5000000000000009 1.3479871153831484 33.500000000000007 7.5000000000000009 9.5000000000000018 1054.5000000000002 7116.5000000000009 253.50000000000003 758.50000000000011 0.15131944417953494 20.500000000000004 1.5000000000000002 26.500000000000004 7.5000000000000009 2.5000000000000004 1.9999305009841921 127.50000000000001 27.500000000000004 1.4001953005790713 1.2498513460159304 46.500000000000007 31.500000000000004 17.500000000000004 11.500000000000002 1.2354185581207278 1.4467719197273257 0.000821759254904464 1.4992877244949343 0.0014818948693573477 6.5000000000000009 4.5000000000000009 39.500000000000007 18.104773521423343 4.5000000000000009 10.500000000000002 3.5000000000000004 9.0094337463378924 1.5000000000000002 23.500000000000004 1.1254138946533205
decision_type=2 2 2 2 2 2 2 2 2 2 2 2 2 2 2 2 2 2 2 2 2 2 2 2 2 2 2 2 2 2 2 2 2 2 2 2 2 2 2 2 2 2 2 2 2 2 2 2 2 2 2 2 2 2 2 2 2 2 2 2 2 2
left_child=1 7 5 4 8 10 -7 12 36 -8 11 20 59 14 17 -16 35 -10 19 34 -2 -5 -23 32 -25 40 27 53 -29 -12 -31 -14 -24 -9 -15 -6 55 -28 39 -39 41 42 43 44 -22 -27 -47 -48 -38 -50 -51 52 -21 -4 -55 56 57 -3 -35 -1 61 -53
right_child=2 3 26 21 16 6 9 33 13 -11 29 -13 31 18 15 -17 -18 -19 -20 51 25 22 23 24 -26 45 37 28 -30 30 -32 -33 -34 58 -36 -37 48 38 -40 -41 -42 -43 -44 -45 -46 46 47 -49 49 50 -52 60 -54 54 -56 -57 -58 -59 -60 -61 -62 -63
leaf_value=-0.10446400224623641 0.065872523024071802 -0.074025873668923117 0.05655921820179978 0.0073739003847640722 -0.097765449656539341 -0.10381049186808161 -0.056459903528769111 -0.11916167973020263 -0.008247769460885436 0.050377211130569366 0.050365777252986223 -0.090574367995533991 -0.087886750906018024 -0.00058956501192053651 -0.10782920887748548 -0.039055755537864459 -0.11715809956407455 -0.092101242716023657 -0.075951791541058647 -0.047177205316495718 -0.039262302955044376 -0.077112975118632382 -0.020513540008782531 0.038987234725530402 -0.032479257422936003 -0.0084235235615087237 0.061022180928318071 -0.078591005031406064 0.044968237679912357 -0.066724098955192088 0.052200247470873186 -0.041428184314481337 -0.079036104455738831 -0.10894101728352157 0.068708815778899354 -0.071025773607551357 -0.10951905661801349 0.050698809032638896 0.054460328931381002 -0.086433304657815138 0.020571622187069684 -0.074331807445549777 0.042932670149921706 -0.082627193189852149 0.038781881500069872 0.048171769004794862 -0.048256176055012499 0.031819566518107925 -0.088004006621053399 -0.014112350755300637 -0.07927090256282493 -0.066919722349706834 0.012651733069848119 -0.026593951263498023 0.065297842245665344 -0.093039402542948901 -0.014470546870409244 -0.044011940882473129 -0.08330357976592484 -0.092744078770256866 -0.092529476861845941 -0.0076405293348447605
leaf_weight=466.64665615558624 7.3044019788503638 48.314323619008064 46.407880708575249 13.342474564909933 62.339849010109901 11.184562504291536 8.3772774338722229 295.59315092861652 13.902083650231363 8.0121064931154251 45.052545681595802 5.1304176300764075 118.58521947264671 9.4559923857450503 20.889700680971146 11.146752402186392 45.705064997076988 5.6919183731079093 10.141410961747168 10.251218989491464 6.2059508711099713 13.796282485127447 11.832312196493151 9.1702225655317324 17.079118773341179 12.68753260374069 506.10944414138794 5.5740268379449827 6.3785705417394638 5.9843953102827063 9.4608040004968625 10.712256520986555 12.458242431282995 218.00033563375473 6.8901580572128287 41.814880862832069 14.579638943076132 9.9026297330856305 164.68232946097851 4.4163628071546546 8.6451197713613492 5.7115357816219321 5.743852272629737 5.4296289384365073 4.7105545848608017 22.651857167482376 5.960970535874365 7.7732241153717041 54.774723470211029 9.1118145883083361 7.9050670266151419 7.7268425971269625 6.7294818162918082 4.4951891005039197 3.7613783925771713 11.434503108263014 9.4607978463172895 22.082802310585976 17.59717969596386 93.011102095246315 6.5534327030181876 5.1435275971889496
leaf_count=879 40 121 253 57 132 22 25 478 54 41 241 15 262 37 44 38 79 13 28 32 22 39 42 43 59 56 2910 18 33 19 50 35 32 392 35 107 28 55 927 14 40 18 29 17 23 118 23 38 125 30 19 21 26 20 21 27 35 68 38 192 16 19
internal_value=-0.0446079 -0.0940298 0.0470875 -0.0671921 -0.0735926 0.00851482 -0.0446228 -0.105461 -0.0619878 -0.00423156 0.0177618 0.00460162 -0.0990483 -0.0453223 -0.064434 -0.0839002 -0.0962188 -0.0326066 -0.0296328 -0.0207279 0.009862 -0.0307685 -0.0386787 -0.028187 -0.0075124 0.00507806 0.0566329 0.0390234 -0.0126529 0.0390702 0.00612183 -0.0840377 -0.0505288 -0.113779 0.0286208 -0.0870303 -0.0727304 0.0583451 0.0507761 0.00840357 -0.0139853 -0.024731 -0.0119064 -0.0311762 -0.00558565 0.0192363 0.028881 -0.00293523 -0.0830412 -0.077664 -0.0443813 -0.0428861 -0.0234669 0.0503226 0.0152685 -0.0629754 -0.0586707 -0.0646108 -0.107026 -0.102516 -0.0598628 -0.0432293
internal_weight=2677.63 1739.87 937.755 519.725 442.046 186.027 27.5739 1220.15 292.186 16.3894 158.453 97.955 688.955 114.523 51.6305 32.0365 149.86 19.594 62.8921 52.7507 92.8246 77.6787 64.3362 50.5399 26.2493 85.5202 751.728 66.617 11.9526 60.4977 15.4452 129.297 24.2906 531.191 16.3462 104.155 177.664 685.111 179.001 14.319 36.4466 27.8015 22.09 16.3461 10.9165 49.0736 36.3861 13.7342 86.3712 71.7916 17.0169 36.4045 16.9807 54.6644 8.25657 91.2924 79.8579 70.3971 235.598 559.658 19.4238 12.8704
internal_count=8770 3682 5088 1406 1134 837 88 2276 816 66 749 439 1368 363 149 82 318 67 214 186 424 272 215 176 102 384 4251 345 51 310 69 297 74 908 72 239 453 3906 996 69 149 109 91 62 45 235 179 61 202 174 49 114 58 294 41 251 224 189 430 1071 56 40
is_linear=0
shrinkage=0.05


Tree=5
num_leaves=63
num_cat=0
split_feature=2 6 2 6 8 6 2 8 6 8 2 2 2 8 6 3 0 6 2 8 8 3 1 5 3 5 5 0 0 1 0 5 6 2 8 1 2 0 1 8 0 5 5 3 6 2 0 6 8 6 6 8 8 8 6 6 3 8 5 3 3 1
split_gain=4341.95 217.856 189.257 89.0122 47.9984 40.4471 37.949 35.9015 30.4256 28.2799 21.7108 17.6 17.0559 12.4834 11.6956 10.4855 10.1875 14.5279 11.5757 9.6785 8.90368 16.8585 8.40022 8.32739 7.90973 17.5434 7.5381 7.2122 15.9884 14.3772 12.1842 12.0159 7.43719 7.26863 6.82322 6.85267 6.15116 9.36615 6.5716 6.01605 26.0525 12.3969 9.38304 6.00235 5.68642 5.50475 5.73252 5.46532 5.25754 5.25106 5.14447 7.33662 5.03645 8.44297 4.90354 4.90004 4.63653 4.59128 4.13716 4.08636 16.3752 4.06902
threshold=6.5000000000000009 0.52291345596313488 2.5000000000000004 0.0069447793066501626 0.047847222536802299 2.1825931072235112 9.5000000000000018 0.0025578703498467807 2.0721004009246831 0.052847223356366164 4.5000000000000009 8.5000000000000018 9.5000000000000018 0.17038194090127948 0.73363915085792553 72.500000000000014 1117.5000000000002 44.662601470947273 3.5000000000000004 0.11677083373069765 0.009502314496785404 3.5000000000000004 4.5000000000000009 1.0000000180025095e-35 1.5000000000000002 3.5000000000000004 2.5000000000000004 13.500000000000002 45.500000000000007 16.500000000000004 28.500000000000004 2.5000000000000004 0.66622105240821849 5.5000000000000009 0.0055902779567986735 150.50000000000003 7.5000000000000009 267.50000000000006 60.500000000000007 0.0021180555922910575 13.500000000000002 1.0000000180025095e-35 6.5000000000000009 6.5000000000000009 0.066915426403284087 3.5000000000000004 59.500000000000007 0.25050915777683264 0.001119791704695672 1.8594847321510317 0.38284313678741461 0.0055208334233611831 0.0022106481483206157 0.0013541666558012368 0.79775699973106395 15.20952367782593 8.5000000000000018 0.0020013503963127737 144.50000000000003 59.500000000000007 97.000000000000014 2184.5000000000005
decision_type=2 2 2 2 2 2 2 2 2 2 2 2 2 2 2 2 2 2 2 2 2 2 2 2 2 2 2 2 2 2 2 2 2 2 2 2 2 2 2 2 2 2 2 2 2 2 2 2 2 2 2 2 2 2 2 2 2 2 2 2 2 2
left_child=2 4 5 26 7 23 61 11 10 22 24 47 14 16 20 -8 17 39 -19 -11 21 -3 -7 57 25 -5 -4 31 29 32 -31 -12 -29 58 -35 -36 37 38 49 41 -41 48 45 -38 -9 55 -47 -2 -10 -16 -46 -52 53 -26 -25 -42 -45 -1 -30 -58 -61 -6
right_child=1 12 3 8 6 9 15 44 13 19 27 -13 -14 -15 36 -17 -18 18 -20 -21 -22 -23 -24 54 52 -27 -28 28 33 30 -32 -33 -34 34 35 -37 43 -39 -40 40 42 -43 -44 56 50 46 -48 -49 -50 -51 51 -53 -54 -55 -56 -57 59 -59 -60 60 -62 -63
leaf_value=-0.095015475475632952 -0.10180562568973708 0.0293852196025872 -0.059410798531317068 -0.071761220629213349 -0.080540797413270859 -0.095106686728762935 -0.037122819156806271 -0.014606002051447181 0.010210343736403595 -0.05114929819132677 -0.016092988508170265 0.014775447856548092 0.059268968133762215 0.025997175281243151 0.0093828173350563732 0.066172109547884508 -0.083986884610929471 -0.019097296372835255 0.066957191422518408 0.031019072901500629 0.051963947992977738 -0.069846330327717948 -0.074796248661281539 -0.10746787009439962 -0.090376329113067422 0.015680490480133123 -0.098083562637067689 -0.07938105753944269 -0.059712127126127217 0.070549536164284318 -0.013142052138719305 -0.083615008646532402 -0.011225159184981176 -0.071675805166795961 0.0060520750850644595 -0.060674641804193109 0.06248344152750638 0.064611855091950665 -0.026855393695781167 0.050927643906666757 -0.088661200756443015 -0.083254848492200162 -0.00090584239601791162 -0.00112628885759177 0.053204143142587125 -0.017811413661053939 -0.077218152070491569 -0.043210802869659275 -0.043998598712746986 0.065247390639969163 -0.031529035766904877 0.040008294769833662 -0.096241103615572976 -0.038683307109711455 -0.081260684079283427 -0.039958165741267045 0.058274716928580252 -0.1067066644910168 -0.10499225324545972 -0.051221349665438391 0.06436938592247636 -0.12272876174596037
leaf_weight=378.87579461932182 9.2887974977493339 11.126347482204443 13.85985818505287 36.683755323290825 9.5935046672821063 89.40460704267025 5.276819244027136 6.3084053993225089 6.6114691197872189 7.324473559856413 9.1903689801692945 7.7729763537645331 628.77366389334202 9.1325095593929273 12.162983968853956 4.5971537232398987 9.6219516396522504 10.616584867239 6.1842354238033286 7.01715187728405 9.0492652803659421 6.9560392051935187 118.23264755308628 531.13938374817371 20.297155767679214 6.7992538809776297 138.68794342875481 7.9770630002021816 13.134306326508524 7.1650545746088055 11.064342230558394 23.275581732392311 8.0335274040698987 9.4298115521669406 10.499525591731073 6.0733519643545142 67.536654472351074 13.112506106495855 7.4571222811937323 8.9484024494886381 13.213717669248583 18.135310918092728 11.392838180065153 6.2906887084245673 20.719231069087982 15.258508473634722 5.5334800630807868 6.9625161886215201 13.82731446623802 6.4302644878625861 5.4660305976867667 10.409293338656424 42.517246752977371 12.931506648659704 18.469469740986824 8.478107735514639 22.771450832486153 107.88944081962109 8.1903489381074888 4.7412418723106375 8.6608070880174619 14.139003917574881
leaf_count=707 21 55 35 90 24 170 21 23 26 19 32 36 3737 39 58 25 26 39 33 31 47 24 275 874 44 25 254 20 36 35 39 57 28 26 42 17 386 75 33 47 30 45 45 31 109 55 16 21 42 36 21 53 91 37 39 27 130 180 16 20 50 24
internal_value=-0.0423919 0.0467493 -0.0877154 -0.0624284 -0.0226486 -0.0982206 -0.0714034 0.00183287 -0.0491845 -0.0788512 -0.0601676 -0.0471048 0.0554154 -0.0304778 0.0416712 0.0109695 -0.0345128 -0.0304854 0.0125786 -0.0109455 0.0114749 -0.00878776 -0.0835415 -0.102369 -0.0750856 -0.0580883 -0.0945699 -0.0445699 -0.0366368 -0.010611 0.0197529 -0.0645011 -0.0451829 -0.0554657 -0.0377209 -0.0184008 0.0471637 0.0301469 0.0127989 -0.0376207 -0.0280775 -0.0531634 -0.0411996 0.0532221 0.0292364 -0.0520051 -0.0336216 -0.076702 -0.0264633 0.0287029 0.0367942 0.0153773 -0.0848432 -0.0702591 -0.106587 -0.0696259 0.0384925 -0.0976068 -0.0771033 0.0453823 0.0234769 -0.105675
internal_weight=2686.72 905.603 1781.12 522.764 100.534 1258.35 33.6065 66.9273 370.217 221.979 233.262 24.0243 805.069 136.954 176.295 9.87397 127.822 118.2 16.8008 14.3416 27.1317 18.0824 207.637 1036.37 119.229 43.483 152.548 114.033 81.5673 34.24 18.2294 32.466 16.0106 47.3273 26.0027 16.5729 149.164 39.1629 26.0504 101.399 62.8251 38.5741 53.8767 110.001 42.903 42.4838 20.792 16.2513 20.4388 18.5932 36.5946 15.8753 75.7459 33.2287 549.609 21.6918 42.4642 486.765 21.3247 36.1735 13.402 23.7325
internal_count=8749 5060 3689 1394 378 2295 94 284 1105 495 635 78 4682 470 945 46 431 405 72 50 126 79 445 1800 287 115 289 348 259 122 74 89 48 137 85 59 819 202 127 333 220 113 173 617 206 128 71 42 68 94 183 74 172 81 913 57 231 887 52 200 70 48
is_linear=0
shrinkage=0.05


Tree=6
num_leaves=63
num_cat=0
split_feature=2 6 4 2 4 1 2 2 6 2 1 6 2 4 7 1 1 7 5 7 7 2 1 6 6 7 4 5 5 4 7 7 2 4 4 4 1 4 4 1 5 2 0 1 2 4 4 5 7 1 4 7 1 0 0 6 2 4 0 7 1 5
split_gain=3867.47 205.314 201.784 55.5172 49.9146 50.6174 36.6838 22.8753 19.3103 16.9812 16.7155 16.7042 14.2847 13.5702 15.7232 14.0186 12.9902 18.3012 12.5223 12.4259 11.7977 11.5945 11.4524 19.7642 11.1693 9.73232 9.52094 9.39066 8.43238 8.34268 12.9194 8.24045 9.86666 7.72301 9.63358 7.68506 7.34253 16.0338 8.99671 7.20264 6.84924 5.98756 8.99065 5.98124 5.95962 5.94312 5.52234 5.50661 5.37805 6.42688 5.54791 4.84119 4.46825 10.0548 9.36499 10.4082 7.51303 4.26155 4.08199 4.05411 3.99647 3.75381
threshold=6.5000000000000009 0.52291345596313488 2.5000000000000004 2.5000000000000004 1.5000000000000002 1054.5000000000002 9.5000000000000018 2.5000000000000004 1.026110112667084 9.5000000000000018 68.500000000000014 0.0069447793066501626 4.5000000000000009 48.500000000000007 8.3477296829223651 64.500000000000014 52.500000000000007 1.2354185581207278 3.5000000000000004 3.0476474761962895 1.0664459466934206 1.5000000000000002 182.50000000000003 211.50000000000003 0.73363915085792553 1.0835077166557314 29.500000000000004 1.0000000180025095e-35 4355.5000000000009 47.500000000000007 1.2498513460159304 1.623197674751282 5.5000000000000009 5.5000000000000009 4.5000000000000009 7.5000000000000009 14.500000000000002 17.500000000000004 4.5000000000000009 3.5000000000000004 2.5000000000000004 7.5000000000000009 267.50000000000006 60.500000000000007 7.5000000000000009 24.500000000000004 11.500000000000002 5.5000000000000009 1.2578703761100771 8.5000000000000018 14.500000000000002 1.4467719197273257 19.500000000000004 19.500000000000004 11.500000000000002 5.0714285373687753 4.5000000000000009 6.5000000000000009 158.50000000000003 1.0679333209991457 221.50000000000003 1.0000000180025095e-35
decision_type=2 2 2 2 2 2 2 2 2 2 2 2 2 2 2 2 2 2 2 2 2 2 2 2 2 2 2 2 2 2 2 2 2 2 2 2 2 2 2 2 2 2 2 2 2 2 2 2 2 2 2 2 2 2 2 2 2 2 2 2 2 2
left_child=2 4 7 10 -2 16 -7 27 12 24 39 40 47 15 22 25 17 44 -13 -19 -20 -12 58 -24 29 33 52 -1 -18 30 59 36 -33 34 -10 -35 -14 38 -38 -4 -9 42 43 46 -6 61 -26 -5 49 57 -51 -49 53 54 -27 -56 -54 -41 -15 -3 -42 -37
right_child=1 9 3 8 5 6 -8 11 13 -11 21 18 31 14 -16 -17 28 19 20 -21 -22 -23 23 -25 41 26 -28 -29 -30 -31 -32 32 -34 35 -36 45 37 -39 -40 48 60 -43 -44 -45 -46 -47 -48 51 -50 50 -52 -53 56 -55 55 -57 -58 -59 -60 -61 -62 -63
leaf_value=-0.091258211893952709 -0.11855722764414822 0.0027693469643451842 -0.090797625628009165 -0.047593266308465131 -0.0048810481653612098 -0.11107893925936561 0.010521022526091762 -0.055600783387187137 -0.029420627733295086 0.058349865184433164 0.019888320135317897 -0.076186829634184314 -0.055665403418969639 0.018014239553883874 -0.048756468662079507 -0.11736262814067132 0.044608920172153815 -0.079436493552617227 0.0015444092475667558 0.016556145252479063 -0.060743560954259868 -0.057335095021124584 -0.088628463179922498 0.019786127093309493 -0.0034306659155195541 -0.074006634868366741 -0.0046655554631890887 -0.10082227087520619 -0.033061843897324632 0.050821625281124862 -0.05861365162802841 -0.087954652214640425 -0.028914667998183569 -0.074551407483716012 0.039055738103939697 0.027284839244871364 -0.037031851253193027 -0.070532342128561118 0.045410401085397852 -0.062380539902619075 -0.086546203262759192 0.052144162696632759 0.063698132576812325 -0.025144509899303641 0.066243454014817058 -0.064689122969187191 0.051923659623311559 -0.11227499903232779 -0.079203347980935063 -0.0090911899338326461 -0.058404203963068606 -0.073964740861555509 -0.068909723186473912 -0.092291841177633199 0.023640445671580319 -0.060945595176963241 0.0016686289368332318 -0.10053451538562426 0.066831809816138052 0.066375691859229466 -0.10489916316839301 -0.026248024808468093
leaf_weight=494.38341547548771 11.693454831838606 6.5493485331535393 73.528390511870384 9.8309884518384916 5.1411188393831271 16.855051651597023 9.8132273554801959 14.063586071133612 10.717145726084709 607.28968125581741 7.1541484892368326 52.383272796869278 14.725346669554709 13.198254749178888 18.69254133105278 5.7193401455879203 31.364460304379463 9.9346351474523527 12.454232782125475 5.102867826819419 19.512135311961174 15.161875173449516 6.7971774935722378 11.018145218491552 8.0088404119014793 14.230067029595377 10.493932023644446 533.74786815047264 3.9325584769248954 8.8402227312326414 7.5087174326181403 17.173574268817902 12.036001279950144 9.1425123363733309 9.8632873892784119 6.2759788334369677 4.8624112755060223 7.4281389713287345 10.359685584902762 24.421417519450188 95.983572378754616 106.76408129930496 12.647357925772665 7.5634530633687964 6.8955444544553757 5.0040286481380454 10.300742447376249 14.250597164034842 94.211470663547516 8.9678854644298571 15.669107049703596 19.572111308574677 7.2977487146854383 18.634300097823143 7.5733232349157316 6.9966940730810165 7.801516517996788 10.450370013713835 6.338692680001258 4.0569585114717484 42.928720086812973 6.8477304130792618
leaf_count=887 20 31 135 27 18 29 46 35 36 3737 27 117 42 57 54 12 163 28 42 22 49 41 18 48 38 33 38 863 14 47 26 37 40 24 50 27 15 19 46 56 182 617 75 33 38 15 56 26 202 27 38 45 17 42 28 19 30 19 34 22 67 23
internal_value=-0.040209 0.0457393 -0.082057 -0.0565434 -0.0214351 -0.00868016 -0.0663333 -0.0929935 -0.0417778 0.0544197 -0.0738719 -0.0790015 -0.0583032 -0.0318034 -0.0113198 -0.0408715 0.0159708 -0.0100833 -0.0611374 -0.0468621 -0.0364759 -0.0325785 0.00741497 -0.0215779 0.0405627 -0.0372524 -0.0487367 -0.0962233 0.0359554 0.0110028 -0.00842905 -0.0437298 -0.0636268 -0.0197255 0.00339705 -0.0371758 -0.02818 -0.0103112 0.0190758 -0.0779269 -0.0888516 0.0460471 0.0291485 0.0122598 0.0358646 -0.0183259 0.027711 -0.080532 -0.0717705 -0.0600032 -0.0404542 -0.0901061 -0.0561324 -0.0636731 -0.0451561 -0.0169788 -0.0324432 -0.0738145 0.0338529 0.0270991 -0.0922179 -0.000647707
internal_weight=2688.17 880.262 1807.9 542.446 100.733 89.0395 26.6683 1265.46 292.881 779.529 249.565 237.326 110.239 182.642 56.0448 126.598 62.3712 27.0742 84.3496 15.0375 31.9664 22.316 37.3523 17.8153 172.24 120.878 73.0276 1028.13 35.297 26.9552 18.115 66.5852 29.2096 47.8507 20.5804 27.2703 37.3756 22.6502 15.2221 227.249 152.976 145.284 38.5204 25.873 12.0367 18.1277 18.3096 43.6537 153.72 59.5088 24.637 33.8227 62.5336 47.4344 28.8001 14.57 15.0993 34.8718 19.5369 10.6063 138.912 13.1237
internal_count=8749 5060 3689 1447 378 358 75 2242 902 4682 545 492 297 605 211 394 283 106 208 50 91 68 157 66 945 382 207 1750 177 126 79 199 77 175 86 89 122 80 61 477 284 819 202 127 56 65 94 98 342 140 65 71 169 122 80 47 47 75 91 53 249 50
is_linear=0
shrinkage=0.05


Tree=7
num_leaves=63
num_cat=0
split_feature=2 6 4 2 4 8 2 2 8 2 6 6 2 3 4 8 7 7 6 5 4 7 8 6 7 8 6 4 5 7 8 3 4 4 5 5 7 2 3 5 3 3 8 4 7 8 2 7 6 7 3 4 4 4 4 7 3 3 8 4 6 8
split_gain=3462.6 193.859 181.474 49.129 44.3052 50.5757 26.3237 20.9339 17.5317 17.5306 16.8824 15.123 12.4013 11.9599 11.9466 18.6794 13.9653 11.8715 11.6598 10.9002 10.4108 10.3994 10.2199 15.663 12.2685 9.63852 13.0818 8.79063 8.73146 7.26756 6.94415 13.5286 6.47155 17.8797 6.42264 6.15264 5.95214 5.82419 8.52113 9.96343 6.09434 5.87804 5.58412 5.57088 5.53076 5.22701 4.97485 4.81701 4.46281 4.4298 4.40135 4.3607 8.11244 8.42911 5.19636 4.2972 4.26301 15.4313 4.24007 3.98074 3.97853 7.24762
threshold=6.5000000000000009 0.54250428080558788 2.5000000000000004 2.5000000000000004 1.5000000000000002 0.081918403506279006 9.5000000000000018 2.5000000000000004 0.052847223356366164 9.5000000000000018 1.026110112667084 0.0069447793066501626 4.5000000000000009 72.500000000000014 48.500000000000007 0.0086265429854393023 8.3477296829223651 1.0664459466934206 0.73363915085792553 3.5000000000000004 1470.5000000000002 1.0664459466934206 0.0043526787776499995 0.36408419907093054 1.2354185581207278 0.020173611119389537 211.50000000000003 29.500000000000004 1.0000000180025095e-35 1.7858148813247683 0.009502314496785404 3.5000000000000004 17.500000000000004 5.5000000000000009 4355.5000000000009 2.5000000000000004 2.7242225408554082 7.5000000000000009 6.5000000000000009 9.5000000000000018 6.5000000000000009 1.5000000000000002 0.0045331791043281564 75.500000000000014 8.043406009674074 0.0022106481483206157 1.5000000000000002 1.623197674751282 0.79775699973106395 1.3875138759613039 6.5000000000000009 15.500000000000002 5.5000000000000009 4.5000000000000009 7.5000000000000009 1.0679333209991457 59.500000000000007 97.000000000000014 0.0020013503963127737 21.500000000000004 1.536328971385956 0.0022693453356623654
decision_type=2 2 2 2 2 2 2 2 2 2 2 2 2 2 2 2 2 2 2 2 2 2 2 2 2 2 2 2 2 2 2 2 2 2 2 2 2 2 2 2 2 2 2 2 2 2 2 2 2 2 2 2 2 2 2 2 2 2 2 2 2 2
left_child=2 4 7 8 -2 22 -7 28 44 18 12 35 45 -8 15 17 25 51 30 -13 -10 -21 23 50 -25 43 -27 60 58 32 31 55 33 -14 -24 -9 -31 38 39 41 -39 -20 -35 -16 46 48 59 -42 -5 -41 -6 52 53 -12 -54 -3 -49 -58 -1 -4 -19 -62
right_child=1 9 3 10 5 6 13 11 20 -11 14 19 29 -15 16 -17 -18 27 37 21 -22 -23 34 24 -26 26 -28 -29 -30 36 -32 -33 -34 42 -36 -37 -38 40 -40 49 47 -43 -44 -45 -46 -47 -48 56 -50 -51 -52 -53 54 -55 -56 -57 57 -59 -60 -61 61 -63
leaf_value=-0.083324109678863348 -0.10984315146841202 0.00106366598573304 -0.080991195940668462 -0.028727313071254892 0.067986527704470043 -0.10163341514594025 -0.04492411162799248 -0.052165945835446703 -0.044458911787164823 0.057686673703272455 -0.027644966592234838 -0.071174996983358663 -0.044063383495930447 0.065384231806565149 0.0080699480383533747 -0.10841589374886061 -0.045618059667058876 -0.019669979831215583 0.0018295744731018325 0.0014678248005229333 0.044647960955004659 -0.056856284372491656 0.041224237102607378 0.011942736380911853 -0.075543678357850599 -0.059735334309940595 0.020411542423642844 -0.0029269694851299134 -0.094957705324511074 -0.086872573468287265 0.047947080529388869 -0.061175563028934156 -0.066921409410467661 0.071019484960270648 -0.023595999515978721 -0.086663497997380753 -0.039169291129065198 0.060774820345569872 0.063429382275724033 0.0012469885458461678 -0.0054247959537392096 0.064241008232559835 -0.0005083231744368754 0.066095792052957167 -0.091711099103039262 -0.088289561999406269 -0.061440991951623516 0.056603727851315233 -0.080756512672278222 -0.064688729494880401 0.00024398348365629763 0.027038808709184826 -0.069171395223304288 0.036977391322524547 -0.011296184399894051 0.065680909882345082 -0.051293274111277688 0.062755458249130633 -0.094424048953930029 -0.053270874034798577 -0.072051423585461224 -0.036275009126512069
leaf_weight=389.0597038269043 11.981956809759138 6.3745401203632408 91.544631317257881 8.8946860283613223 6.2287456244230288 17.3602254986763 6.0972867757082003 14.235453501343725 11.150525987148283 584.58428910374641 10.832169473171234 53.244642361998558 21.723560154438019 4.1160732209682465 8.766830116510393 8.8618416488170606 18.972075179219246 8.4391388744115812 6.5365455001592663 12.4489778727293 4.642790973186492 19.796157896518707 33.020045965909958 7.1221862286329296 9.1625651270151121 9.2824620753526705 11.276455938816069 10.726889371871946 538.24523690342903 12.342973604798319 7.7452077418565741 7.2948961555957785 8.449724540114401 5.3241647779941541 4.3216393291950217 140.38340064883232 13.906459286808966 63.267534375190735 11.805157229304312 6.3888371437787992 6.0015298277139655 8.9221133440732938 5.5971844047307968 7.8314204663038245 32.852981075644493 27.887692898511887 97.460368290543556 21.658468902111053 7.6802528649568549 4.2364370077848434 3.8984473496675491 6.1371722966432563 9.3551106899976713 9.4468731731176376 6.6249734461307517 4.3143005222082138 4.738857686519621 7.9276838302612305 110.46114782989025 15.08529609441757 32.423964142799377 25.125726312398911
leaf_count=707 20 30 175 26 33 30 23 35 32 3730 36 117 64 23 36 18 54 27 32 42 20 49 173 32 25 28 50 39 863 27 42 24 21 26 16 249 40 386 71 30 31 52 21 43 59 55 222 131 17 17 16 26 24 49 25 24 20 49 180 37 76 74
internal_value=-0.0382595 0.044778 -0.0771344 -0.0530817 -0.019444 -0.00758381 -0.0641617 -0.0874612 -0.0692714 0.0536032 -0.0392541 -0.0741567 -0.0545792 -0.000468886 -0.029947 -0.0383822 -0.0107149 -0.0331718 0.0393271 -0.0572811 -0.018264 -0.0343389 0.0168862 -0.00691708 -0.0372812 0.00710632 -0.0157752 -0.0449064 -0.0905395 -0.0410486 0.00836561 -0.00868128 -0.0279211 -0.0178263 0.0337224 -0.0834874 -0.0616003 0.0449575 0.0281832 0.0122314 0.0510927 0.0378509 0.0343615 0.0354478 -0.0726712 -0.075073 -0.0696063 0.0359026 -0.0528358 -0.0250425 0.0419091 -0.0119382 -0.0185354 0.00245898 -0.0451777 0.0271449 0.0431284 0.0200871 -0.0857787 -0.0770695 -0.0517304 -0.0564317
internal_weight=2681.63 855.106 1826.52 548.646 103.309 91.3272 27.5736 1277.87 252.737 751.796 295.91 240.109 111.807 10.2134 184.103 127.974 56.1292 119.112 167.212 85.4898 15.7933 32.2451 63.7536 26.4119 16.2848 37.1572 20.5589 76.7157 1037.77 67.3441 25.7289 17.9837 41.0946 32.6449 37.3417 154.619 26.2494 141.483 37.8891 26.0839 103.594 15.4587 10.9213 16.5983 236.943 44.4626 204.09 40.3265 16.5749 10.6253 10.1272 42.3963 36.2591 20.279 15.9801 10.6888 34.325 12.6665 499.521 106.63 65.9888 57.5497
internal_count=8749 5060 3689 1447 391 371 76 2242 545 4669 902 492 297 46 605 394 211 376 939 208 52 91 295 106 57 157 78 216 1750 199 120 78 132 111 189 284 67 819 202 131 617 84 47 79 493 98 434 231 43 47 49 160 134 85 49 54 200 69 887 212 177 150
is_linear=0
shrinkage=0.05


Tree=8
num_leaves=63
num_cat=0
split_feature=2 4 4 2 2 8 4 2 8 2 4 5 2 4 2 1 5 4 5 5 5 3 8 5 3 3 4 3 1 2 5 0 0 1 1 0 0 3 1 5 4 5 3 4 5 0 4 8 1 0 3 3 3 1 8 5 3 0 4 1 4 5
split_gain=3113.66 165.235 106.065 68.4084 43.8487 34.9496 56.8935 19.476 15.5239 15.0568 13.0033 12.9401 13.2429 12.3659 10.9856 10.8411 9.51787 9.36419 9.1106 8.26296 8.06441 7.51965 19.1243 9.05416 7.38463 10.1145 7.35286 7.24333 8.88768 7.18249 11.1294 9.41308 9.19127 12.8684 6.68053 6.45225 7.70424 6.43395 6.32826 6.20614 11.5711 11.2877 6.47693 10.7318 5.96946 5.33057 10.4957 10.3933 5.72108 5.72239 9.73572 4.92448 6.25733 4.87738 3.92434 3.88702 4.53188 3.85122 3.46536 7.91731 3.52791 3.33939
threshold=6.5000000000000009 2.5000000000000004 1.5000000000000002 9.5000000000000018 2.5000000000000004 0.11677083373069765 523.50000000000011 2.5000000000000004 0.052847223356366164 7.5000000000000009 1.0000000180025095e-35 1.0000000180025095e-35 4.5000000000000009 71.500000000000014 3.5000000000000004 199.50000000000003 2153.0000000000005 1470.5000000000002 49.500000000000007 1.0000000180025095e-35 3.5000000000000004 1.5000000000000002 0.0015354938223026695 3.5000000000000004 6.5000000000000009 10.500000000000002 62.500000000000007 5.5000000000000009 10.500000000000002 5.5000000000000009 5.5000000000000009 55.500000000000007 103.50000000000001 92.500000000000014 3.5000000000000004 631.00000000000011 207.50000000000003 1.5000000000000002 37.500000000000007 233.50000000000003 23.500000000000004 14.500000000000002 5.5000000000000009 6.5000000000000009 44.500000000000007 13.500000000000002 15.500000000000002 0.0022106481483206157 20.500000000000004 1185.0000000000002 1.5000000000000002 59.500000000000007 180.50000000000003 6.5000000000000009 0.0020013503963127737 2.5000000000000004 7.5000000000000009 231.50000000000003 34.500000000000007 43.500000000000007 11.500000000000002 7.5000000000000009
decision_type=2 2 2 2 2 2 2 2 2 2 2 2 2 2 2 2 2 2 2 2 2 2 2 2 2 2 2 2 2 2 2 2 2 2 2 2 2 2 2 2 2 2 2 2 2 2 2 2 2 2 2 2 2 2 2 2 2 2 2 2 2 2
left_child=1 7 -2 5 8 9 -7 19 34 13 38 12 45 18 26 -14 -8 -10 27 54 -12 22 23 -16 -11 35 53 28 -4 39 -31 -32 -33 57 -3 36 -26 -22 55 40 42 -42 43 -23 -27 47 -47 -6 -48 50 -50 -46 -53 -13 -1 -9 -57 -34 59 60 -30 -24
right_child=2 4 3 -5 11 6 16 10 17 24 20 14 15 -15 21 -17 -18 -19 -20 -21 37 29 61 -25 25 44 -28 -29 58 30 31 32 33 -35 -36 -37 -38 -39 -40 -41 41 -43 -44 -45 51 46 48 -49 49 -51 -52 52 -54 -55 -56 56 -58 -59 -60 -61 -62 -63
leaf_value=-0.078644406475366538 -0.1025868059272016 -0.080737998681835968 0.066899516594825251 0.054979635195679166 -0.036658242412743139 -0.11135719724578097 0.063865786294667687 -0.045916599968876246 -0.041719486334873365 0.048719436966777163 -0.066737800003320288 -0.042106331895299283 0.046393607757774777 0.052659940275962963 -0.020011843687736092 -0.025442095412157861 -0.006081816120403964 0.043132651214637135 -0.054432184299720271 -0.08990529476788979 -0.0049743989278497039 -0.073601505564831082 0.051102061614602838 -0.088743820597322401 -0.018407143059532657 -0.0084805125568688106 -0.020376585570270486 0.065371882650628862 -0.037751662877750565 -0.076341105601739082 0.035847086297502266 -0.067043563650827115 0.068945342794727346 -0.04498881063540338 -0.062721508334431728 -0.059812525159698531 0.063491772732661281 -0.050833022141085253 -0.091309817522625597 -0.089687793352910009 0.034682879143409465 -0.041022775299640685 -0.091667796365298371 -0.024476338823955987 0.063453797217022004 -0.07955665686711591 -0.059096732243472852 0.043113706069041441 -0.044224268413882287 -0.050140490209255845 0.038557318708193733 -0.0052903603622522595 0.06372837964591993 -0.082358148506935763 -0.089297368576860492 -0.07981600884326541 -0.046560364074669409 0.0019697295570009713 -0.051868814881167125 0.044997074699608043 0.012242254486327948 0.0034013747381027256
leaf_weight=391.52872993052006 12.182347640395163 74.912200346589088 4.0485318750143078 591.88330733776093 11.812747016549112 12.087745919823648 9.1429464221000689 13.700232192873953 11.284949898719786 83.789382576942444 53.92675518989563 9.9100081473588926 11.629939839243891 12.351114854216574 11.520924404263498 9.5770943909883481 10.390010952949522 4.5675398409366599 7.4357861280441275 540.01110011339188 11.356962412595747 22.95072340965271 7.1931550204753858 8.2031286060810071 7.9821152389049548 5.5889301300048819 8.0313570052385312 4.5448640435934058 11.377151608467111 8.9252502173185331 7.5052592307329169 9.5583351999521273 4.6517552584409732 10.150870546698568 164.30472005903721 4.3263709396123877 4.4849887639284134 23.423026993870735 60.238736554980278 9.2681788802146894 7.3773971050977734 14.803503349423407 11.659861683845518 21.562326788902283 19.499362885951996 12.732277691364287 8.9381826817989367 6.2400503009557715 5.8832177817821529 6.6223413050174704 8.9623772203922254 7.7095515280961973 5.7207176238298416 31.281952083110809 110.94770565629005 67.321597620844841 12.083142489194868 3.9851678907871246 4.6386336237192145 5.9592920839786521 5.1153722256422034 7.4891418367624283
leaf_count=707 20 135 22 3869 34 19 56 34 32 496 117 26 55 73 38 33 45 20 23 863 37 52 35 18 35 27 24 26 42 22 32 25 24 30 358 17 27 58 96 17 32 42 22 68 119 28 23 34 19 20 42 36 35 64 180 122 28 16 18 30 25 27
internal_value=-0.0365029 -0.0728039 0.0438606 0.0460415 -0.0499658 0.0226527 -0.0261008 -0.0826447 -0.0651881 0.0305759 -0.0698677 -0.0369551 -0.0200966 0.00855012 -0.0433852 0.0139526 0.0266591 -0.0172712 -0.00408462 -0.0856113 -0.0546307 -0.0372602 -0.0164351 -0.0485971 0.0393593 0.02518 -0.0641413 0.00640678 -0.00219942 -0.042672 -0.0263811 -0.0139435 -0.0271266 -0.00681874 -0.0683635 -0.00720156 0.0110557 -0.0358585 -0.078682 -0.050997 -0.0464205 -0.015843 -0.0584945 -0.049805 0.0392979 -0.0318971 -0.0414438 -0.00908462 -0.0254844 -0.0114898 0.00575149 0.047407 0.0241087 -0.0726743 -0.0809966 -0.0705119 -0.0747554 0.0380421 -0.0125259 -0.00439751 -0.0222454 0.0267709
internal_weight=2668.29 1838.03 830.259 818.076 553.496 226.193 31.6207 1284.54 255.069 194.572 242.05 298.427 82.3982 55.4707 216.028 21.207 19.533 15.8525 43.1196 1042.49 88.7067 166.805 34.4063 19.7241 139.101 55.312 49.2233 35.6838 31.139 132.399 44.7766 35.8514 28.3461 18.7878 239.217 16.7935 12.4671 34.78 153.344 87.622 78.3538 22.1809 56.1729 44.5131 38.5186 61.1912 43.1384 18.0528 30.4061 21.4679 14.8456 32.9296 13.4303 41.192 502.476 93.105 79.4047 8.63692 27.0904 22.4518 16.4925 14.6823
internal_count=8749 3689 5060 5040 1447 1171 120 2242 545 1051 492 902 288 259 614 88 101 52 186 1750 212 500 118 56 792 296 114 163 137 382 149 127 95 70 493 79 62 95 280 233 216 74 142 120 217 200 132 68 104 81 61 190 71 90 887 184 150 40 115 97 67 62
is_linear=0
shrinkage=0.05


Tree=9
num_leaves=63
num_cat=0
split_feature=2 4 2 4 2 8 4 2 2 8 4 4 8 8 7 4 0 2 8 4 7 2 1 3 3 8 7 4 4 4 4 4 4 0 8 1 7 7 8 0 7 7 1 3 7 1 0 8 8 8 0 8 7 0 1 8 0 0 0 3 7 4
split_gain=2809.97 151.918 98.2397 65.3515 39.3525 32.1233 50.995 18.3205 14.2022 13.8309 12.0703 11.5395 11.2272 10.4366 10.5455 10.3142 10.055 9.25011 8.61724 8.43485 8.02977 7.6836 7.21286 7.10777 9.4373 6.81198 7.09741 9.23383 7.6297 7.53779 6.59139 8.91186 8.32381 9.83269 6.38202 6.27315 6.26811 6.10305 5.97097 5.66384 8.9892 5.57217 5.43563 6.93227 5.33667 5.11441 7.10128 4.80583 6.03093 14.102 11.5739 5.29137 4.39692 4.63667 4.54479 4.34582 7.59562 4.16619 4.02036 3.97917 7.26602 3.91199
threshold=6.5000000000000009 2.5000000000000004 9.5000000000000018 1.5000000000000002 2.5000000000000004 0.11677083373069765 523.50000000000011 2.5000000000000004 7.5000000000000009 0.052847223356366164 1.0000000180025095e-35 71.500000000000014 0.17731275409460071 0.078003469854593291 1.0517957210540774 90.500000000000014 830.50000000000011 4.5000000000000009 0.34853670001029974 1470.5000000000002 2.9665397405624394 4.5000000000000009 89.500000000000014 6.5000000000000009 10.500000000000002 0.0012615740415640178 1.7500396966934206 16.500000000000004 23.500000000000004 16.500000000000004 48.500000000000007 24.500000000000004 7.5000000000000009 20.500000000000004 0.0016920194029808047 4.5000000000000009 1.7500396966934206 14.733936786651613 0.015008680522441866 631.00000000000011 2.0397160053253178 1.2498513460159304 16.500000000000004 2.5000000000000004 6.6672754287719735 19.500000000000004 43.500000000000007 0.0010664683068171146 0.0016920194029808047 0.0031442901818081741 11.500000000000002 0.0013541666558012368 1.1180652379989626 8.5000000000000018 5.5000000000000009 0.0014818948693573477 8.5000000000000018 164.50000000000003 198.00000000000003 59.500000000000007 18.978378295898441 4.5000000000000009
decision_type=2 2 2 2 2 2 2 2 2 2 2 2 2 2 2 2 2 2 2 2 2 2 2 2 2 2 2 2 2 2 2 2 2 2 2 2 2 2 2 2 2 2 2 2 2 2 2 2 2 2 2 2 2 2 2 2 2 2 2 2 2 2
left_child=1 7 3 -2 9 8 -7 34 11 35 38 20 13 14 30 17 22 -16 -8 -11 36 -14 37 -10 39 -19 27 45 -29 -28 31 32 47 -34 44 -3 41 -17 -9 40 -25 61 55 -44 -1 -27 -47 -6 51 50 -50 -49 53 -37 -54 56 -12 -31 -26 -60 -61 -5
right_child=2 4 -4 5 12 6 18 10 23 19 42 -13 21 -15 15 16 -18 25 -20 -21 -22 -23 -24 24 58 26 29 28 -30 57 -32 -33 33 -35 -36 52 -38 -39 -40 -41 -42 -43 43 -45 -46 46 -48 48 49 -51 -52 -53 54 -55 -56 -57 -58 -59 59 60 -62 -63
leaf_value=-0.079219935068641778 -0.096440537802627443 -0.074079305705414836 0.054136574372807646 0.046520332842138634 0.0080599049848866268 -0.10502181258468304 0.064137306062770669 -0.067769033089763786 0.047660246058577278 -0.039210716609588227 -0.058549250255097267 0.051620254534864733 -0.026183998903231382 -0.08549813640718526 -0.057273659682428452 0.068917557484458811 -0.051104985433616967 0.0093204086252719944 -0.0034406790588279372 0.041678332872721838 -0.056850397277198997 0.051649318845980674 -0.026821953823699719 0.045203386657402568 0.0028216264974296615 -0.029679844609200357 -0.084854511787342754 -0.091183166047434372 -0.024923729718972901 -0.0051319735280396187 0.029068970429174831 -0.073314795388563392 -0.017799498535179172 0.071760071328336422 -0.086899428853705385 -0.061699200453760095 0.06540708514576403 -0.0078968775892794534 -0.088873956865338027 -0.055144114173848846 -0.041883410438714144 -0.031639341076360697 0.0092708965455604742 -0.05309947512433752 -0.049709537284310601 0.051256007732225474 -0.02139005230476896 -0.018309506874707664 -0.039220952404108472 -0.084753895012038089 0.051592245244314085 -0.06701698632624499 -0.024426018434566411 -0.026862443868035286 -0.065974112356740375 -0.081033812897641361 -0.0049037829127283189 -0.062784943301908494 0.062459367934372345 -0.0075977243106410382 0.063441644366317398 -0.00057266480244524444
leaf_weight=686.43169859051704 12.307211771607397 100.01027938723564 571.56231571733952 6.0417400449514416 8.4081907123327237 12.173509746789934 8.3070848137140292 104.39175716042519 81.429258421063423 11.403446361422537 47.882104068994522 11.979367941617964 6.612891957163809 10.635852754116057 87.671857595443726 5.9668008536100441 11.536101773381231 8.2358693182468397 10.916511312127112 4.4925049394369116 6.1310057491064063 6.091827392578125 8.2426946163177472 7.4584904015064257 6.6049999296665183 14.061276689171793 13.780516639351847 7.9580214619636562 9.568426847457884 6.8813070952892286 6.3898402303457251 8.1070902049541456 7.5455383956432325 5.1608313918113708 340.92301797866821 18.043327018618584 3.8398814648389807 4.5635455995798111 49.359281241893768 4.4545194059610358 4.9163958430290222 10.76132796704769 7.6235567480325725 10.719399914145468 15.669781938195227 6.4594842940568906 7.019695833325386 8.6356735527515429 6.1213011443614986 4.9906168282032004 8.2197802066802961 15.737159192562101 7.0696974694728842 20.294791296124458 95.392250254750252 15.587371751666067 7.6529954075813285 5.7535359412431717 16.616416364908222 7.4854637682437879 6.9335308969020844 16.32681268453598
leaf_count=1177 20 184 3869 30 32 19 51 203 496 32 107 73 21 24 208 32 31 30 50 20 18 27 30 43 33 43 28 17 32 25 28 20 27 25 540 38 22 14 77 17 19 41 26 25 33 29 23 28 22 11 43 37 18 53 200 31 23 15 106 35 43 75
internal_value=-0.0349046 -0.0689587 0.0429528 0.0157151 -0.0471473 0.0219222 -0.0249466 -0.0784052 0.0296275 -0.0615221 -0.0660477 0.00821015 -0.0348614 -0.036893 -0.0350268 -0.041206 -0.0143672 -0.0460657 0.0257618 -0.0163499 -0.0038552 0.0111366 0.00820828 0.038308 0.0243269 -0.0337395 -0.0387006 -0.0266386 -0.0550093 -0.0592795 -0.0196249 -0.0238915 -0.01771 0.0185761 -0.0812867 -0.064504 0.00493344 0.0356284 -0.0745444 -0.00679804 0.0106048 -0.00207569 -0.0514457 -0.0271776 -0.0785613 -0.00858376 0.0134233 -0.0265575 -0.0332174 -0.0123621 0.0128298 -0.0497592 -0.0577026 -0.0432579 -0.0631074 -0.0577046 -0.0511567 -0.0313854 0.0382432 0.0457817 0.0265623 0.0121471
internal_weight=2649.55 1843.3 806.246 234.684 557.062 222.376 31.3971 1286.24 190.979 256.706 243.216 55.0801 300.356 287.651 277.015 197.699 30.3091 167.39 19.2236 15.896 43.1008 12.7047 18.773 135.899 54.4698 79.7181 71.4823 45.0669 17.5264 26.4154 79.316 72.9262 64.8191 12.7064 1043.02 240.81 36.9698 10.5303 153.751 16.8294 12.3749 33.1299 89.4654 18.343 702.101 27.5405 13.4792 52.1127 43.7045 19.3317 14.3411 24.3728 140.8 38.3381 102.462 71.1225 55.5351 12.6348 37.6404 31.0354 14.419 22.3686
internal_count=8749 3689 5060 1191 1447 1171 120 2242 1051 545 492 259 902 854 830 557 107 450 101 52 186 48 76 792 296 242 212 144 49 68 273 245 225 52 1750 493 168 46 280 79 62 146 212 51 1210 95 52 173 141 76 65 65 309 91 218 161 130 40 217 184 78 105
is_linear=0
shrinkage=0.05


Tree=10
num_leaves=63
num_cat=0
split_feature=2 4 2 4 2 1 4 2 4 2 4 8 1 3 8 3 2 7 7 1 1 3 4 1 7 3 8 4 0 8 1 1 4 1 4 7 7 8 7 7 0 4 1 8 4 0 1 8 1 7 7 3 8 1 2 4 4 2 1 4 0 0
split_gain=2568.97 136.667 92.557 60.2978 43.3422 28.1842 26.1259 19.0817 14.5628 14.2765 15.9837 12.3714 11.8355 9.45585 9.3164 8.29095 8.03121 8.85186 12.5714 9.45615 8.70904 12.5302 6.67776 6.84052 7.62244 7.35949 6.37139 10.0548 6.95398 5.95325 5.89183 7.09599 8.53724 7.56682 7.75051 5.38988 9.13549 7.55285 6.89595 10.1282 6.35772 6.72554 6.22581 5.30242 5.0161 9.4123 9.30625 7.87886 5.4984 5.43288 4.71165 6.52179 4.17194 5.14189 4.83551 6.47826 5.03244 4.13923 4.03752 3.73591 3.7358 3.71423
threshold=6.5000000000000009 2.5000000000000004 9.5000000000000018 1.5000000000000002 2.5000000000000004 2079.0000000000005 1220.5000000000002 7.5000000000000009 71.500000000000014 2.5000000000000004 1.0000000180025095e-35 0.00098214289755560479 4.5000000000000009 16.500000000000004 0.094826389104127898 212.00000000000003 4.5000000000000009 19.964673995971683 10.009571075439455 1347.5000000000002 357.00000000000006 15.500000000000002 233.50000000000003 3.5000000000000004 1.2697504758834841 6.5000000000000009 0.0044543652329593906 18.500000000000004 7.5000000000000009 0.0020013503963127737 14.500000000000002 47.500000000000007 34.500000000000007 31.500000000000004 10.500000000000002 1.7500396966934206 2.6446983814239506 0.0014818948693573477 1.3875138759613039 1.2578703761100771 60.500000000000007 10.500000000000002 22.500000000000004 0.0042013889178633699 54.500000000000007 412.50000000000006 14.500000000000002 0.0024112655082717542 656.00000000000011 1.3772385120391848 2.5055679082870488 1.5000000000000002 0.027165316045284275 50.500000000000007 8.5000000000000018 13.500000000000002 22.500000000000004 3.5000000000000004 18.500000000000004 11.500000000000002 164.50000000000003 731.50000000000011
decision_type=2 2 2 2 2 2 2 2 2 2 2 2 2 2 2 2 2 2 2 2 2 2 2 2 2 2 2 2 2 2 2 2 2 2 2 2 2 2 2 2 2 2 2 2 2 2 2 2 2 2 2 2 2 2 2 2 2 2 2 2 2 2
left_child=1 9 3 -2 14 7 -7 8 13 29 43 12 -6 30 22 -8 44 18 19 20 21 35 23 -3 26 59 28 -28 -25 -1 -5 33 -33 34 -32 37 -37 -18 39 40 41 42 -39 -11 46 60 47 50 -47 -49 51 57 53 54 55 58 -57 -13 -9 -26 -46 -54
right_child=2 4 -4 5 11 6 15 52 -10 10 -12 16 -14 -15 -16 -17 17 -19 -20 -21 -22 -23 -24 24 25 -27 27 -29 -30 -31 31 32 -34 -35 -36 36 -38 38 -40 -41 -42 -43 -44 -45 45 48 -48 49 -50 -51 -52 -53 61 -55 -56 56 -58 -59 -60 -61 -62 -63
leaf_value=-0.074134067102571685 -0.091159126414234556 -0.071438641033016337 0.054285604068457088 0.035695502060034544 -0.032626078245952116 -0.085309561701577608 0.047664227002703709 0.021689921137963645 0.051691361208438848 -0.064369663290099396 -0.047422419525018689 -0.049401642569917609 0.058174709029504702 -0.070896079082223548 -0.016265278391775852 -0.043541456940996183 -0.054932640595600372 0.033471771734500742 -0.081752922093069974 0.043112310388419992 -0.077733853878211537 0.038547011908257045 -0.085479536087029878 -0.036780799130468778 -0.055874720904515777 -0.041925441159815939 -0.080237907278390613 -0.023944199044323201 0.01854045646977338 -0.082220072733025548 -0.032543156059894988 0.065137758710250834 -0.029453141686343304 -0.056563877386348098 0.063675910963012824 -0.068881546116079717 -0.00071112018052241319 0.006975162039680201 0.027943636849686017 -0.058613167600308137 -0.041181270307806855 0.040105361688029542 -0.052098799234237658 -0.083153304487605856 -0.011418611203289285 -0.068572880515783655 -0.062871776371273974 0.019127824597736931 -0.013927016978165214 -0.043768865360974449 -0.0033014679163301526 -0.067161037246167538 0.061370781372339492 0.054430781656791417 0.054391098965431511 -0.036608405997663629 0.033050904665770292 -0.0026501333418646111 0.063937755305997851 -0.082387981470512184 0.043699670271622609 0.011992315545363794
leaf_weight=707.84588807821274 12.367392957210539 71.830646380782127 550.46862632036209 8.6534583270549756 7.0299903601407987 11.032205343246462 8.5631707608699781 16.569627478718761 12.580352470278738 77.027500733733177 96.065045863389969 10.333310842514038 7.331452801823616 5.465369150042533 11.873473152518271 3.5143317431211463 13.385809779167174 6.1723710596561423 9.9703046232461912 5.1282296925783148 7.6743552982807151 7.7706426680088034 26.186785027384758 22.075314566493038 20.981779083609581 29.520711168646812 17.48164276778698 14.521112337708471 7.6487544625997534 335.52604649960995 5.2184420078992897 5.4457223117351514 4.2446834892034531 10.816907748579977 3.49432472884655 16.33782367408276 7.0288098603487006 14.112181112170225 8.6326490342617017 12.991242498159407 10.538119718432425 8.9991883784532529 6.5210360735654822 73.347119078040123 9.6557169556617719 11.919362559914591 50.605190351605415 9.8966934531927091 7.4995055645704261 5.2570906877517691 6.2367857992649069 23.972970396280289 4.6585718691349056 53.632240235805511 17.111729294061661 6.7706286311149579 4.201778307557106 8.7379102408885956 8.5853302478790265 36.226578190922737 4.5101440399885169 20.865972250699997
leaf_count=1228 20 130 3870 44 19 21 52 96 79 150 228 26 31 14 41 13 36 24 21 24 18 35 47 52 44 69 32 38 24 537 19 31 17 37 21 40 26 53 35 35 33 41 20 118 36 29 116 43 25 13 19 51 31 341 108 32 23 32 52 66 20 112
internal_value=-0.0331847 -0.0652418 0.0432629 0.0161501 -0.044534 0.0224272 -0.0296851 0.0288223 0.00433211 -0.0741778 -0.063354 -0.0315483 0.0137273 -0.00941527 -0.0595255 0.021125 -0.0338387 -0.0250233 -0.0278202 -0.023306 -0.026294 -0.0225809 -0.0616095 -0.0587719 -0.0526431 -0.0622012 -0.0392135 -0.0546949 -0.0225452 -0.0767344 -0.000543231 -0.0112752 0.0237042 -0.0286316 0.00604627 -0.027401 -0.0483755 -0.0208819 -0.0135059 -0.0202367 -0.00782566 0.00403654 -0.0116949 -0.0735316 -0.0418616 -0.0248611 -0.0468247 -0.0342218 -0.0474688 -0.00269205 -0.0439171 -0.049802 0.0391661 0.0435037 0.032496 0.0221254 -0.00993304 -0.0279814 0.036109 -0.072664 0.00613001 0.0210045
internal_weight=2620.67 1846.41 774.261 223.792 556.596 211.425 23.1097 188.315 55.9193 1289.81 246.44 298.249 14.3614 43.3389 258.347 12.0775 283.887 135.263 129.09 119.12 113.992 106.318 246.473 220.287 148.456 86.7291 61.7268 32.0028 29.7241 1043.37 37.8735 29.2201 9.69041 19.5297 8.71277 98.5469 23.3666 75.1802 61.7944 53.1618 40.1705 29.6324 20.6332 150.375 148.625 33.5847 115.04 64.4348 19.4189 15.1538 49.281 43.0442 132.396 106.871 53.2391 36.1274 10.9724 19.0712 25.155 57.2084 14.1659 25.5245
internal_count=8738 3705 5033 1163 1444 1143 86 1057 262 2261 496 901 50 183 543 65 851 441 417 396 372 354 502 455 325 179 146 70 76 1765 169 125 48 77 40 319 66 253 217 182 147 114 73 268 410 110 300 184 54 56 128 109 795 652 311 203 55 58 148 110 56 143
is_linear=0
shrinkage=0.05


Tree=11
num_leaves=63
num_cat=0
split_feature=2 4 2 4 2 5 3 2 4 1 8 8 1 5 4 8 5 2 1 4 2 8 4 5 3 8 5 2 4 1 0 8 1 8 0 5 8 8 4 0 8 4 5 5 0 5 4 0 8 0 5 1 5 8 1 8 1 4 8 4 0 2
split_gain=2331.72 127.842 89.382 54.7609 39.3611 26.9732 27.6057 13.8207 15.0228 13.5894 19.0857 11.0542 10.8324 8.59015 8.43592 8.4358 8.05411 9.42522 9.57563 7.44457 7.15129 9.07887 9.76781 13.2934 7.22337 11.1353 6.91998 6.29702 5.8907 6.3785 5.83103 5.06902 4.77714 7.01247 4.58785 5.06742 4.52378 4.25853 4.13774 3.98727 19.1645 11.5109 3.94815 13.185 4.34625 3.85785 3.84816 3.77097 3.7242 4.14904 3.7113 3.66294 3.78033 3.61195 3.47504 3.36218 3.71777 8.4098 4.93953 7.31684 3.58002 3.23371
threshold=6.5000000000000009 2.5000000000000004 9.5000000000000018 1.5000000000000002 2.5000000000000004 609.50000000000011 2.5000000000000004 2.5000000000000004 1.0000000180025095e-35 50.500000000000007 0.0030237268656492238 0.00098214289755560479 4.5000000000000009 17277.500000000004 15.500000000000002 0.094826389104127898 1.0000000180025095e-35 4.5000000000000009 199.50000000000003 1576.5000000000002 3.5000000000000004 0.025737847201526168 28.500000000000004 14.500000000000002 1.5000000000000002 0.0015354938223026695 1.0000000180025095e-35 8.5000000000000018 233.50000000000003 3.5000000000000004 16.500000000000004 0.0042013889178633699 8.5000000000000018 0.0016348379431292417 3977.0000000000005 1078.5000000000002 0.0024112655082717542 0.0083680558018386381 62.500000000000007 13.500000000000002 0.0022106481483206157 12.500000000000002 117.50000000000001 24.500000000000004 158.50000000000003 2.5000000000000004 15.500000000000002 23.500000000000004 0.0013541666558012368 12.500000000000002 5.5000000000000009 39.500000000000007 28.500000000000004 0.0013541666558012368 3.5000000000000004 0.0027430555783212189 8.5000000000000018 7.5000000000000009 0.0064959488809108743 11.500000000000002 58.500000000000007 1.5000000000000002
decision_type=2 2 2 2 2 2 2 2 2 2 2 2 2 2 2 2 2 2 2 2 2 2 2 2 2 2 2 2 2 2 2 2 2 2 2 2 2 2 2 2 2 2 2 2 2 2 2 2 2 2 2 2 2 2 2 2 2 2 2 2 2 2
left_child=1 7 3 -2 15 9 -7 26 31 10 27 12 -6 19 -12 28 17 39 -19 34 38 22 24 37 25 53 36 32 29 -3 -27 45 -5 48 35 -8 54 -24 46 40 -13 -41 43 -25 -45 -9 -18 -47 49 -34 -35 -16 -53 -22 -1 -31 57 -57 59 -58 -60 -28
right_child=2 4 -4 5 11 6 13 8 -10 -11 14 16 -14 -15 51 -17 20 18 -20 -21 21 -23 23 42 -26 30 61 -29 -30 55 -32 -33 33 50 -36 -37 -38 -39 -40 41 -42 -43 -44 44 -46 47 -48 -49 -50 -51 -52 52 -54 -55 -56 56 58 -59 60 -61 -62 -63
leaf_value=-0.067693587813521069 -0.086564426974545791 -0.067991882336672207 0.053523363751794187 0.05067967948700644 -0.030808003572268729 -0.086934193847052171 -0.0088148546653858614 -0.033727208803685925 -0.044781255735612813 0.044349276844157931 -0.04967445377680723 -0.048024407925096227 0.056326854253576045 -0.046505505742908855 -0.027584273214273466 -0.015368737550910032 -0.051096989112120239 0.052755672588211747 -0.019648780391308823 0.062749284280007839 -0.014994888453594838 -0.066902268620620015 0.070214584890330403 -0.061110600809245477 -0.043118326338728787 -0.0042267881709844432 -0.080705915626461552 0.061510594596938861 -0.08076182324856121 -0.031042920249043423 0.069169689627566575 -0.07951624671153712 -0.022640963983909836 -0.011475728236510725 -0.032125512352290532 0.063733356712101633 -0.079201622022748427 0.003059574749751548 -0.024410831152469638 -0.078696130704531825 0.065379164114629115 -0.020465878746583184 -0.048528826464199606 0.0010657368663042246 0.070153222582767627 -0.072038724060549619 -0.086340178627981351 -0.043205090714152995 -0.048955275713432604 0.038953740803664934 0.045611139009677365 0.062011363710965786 -0.008657475641968445 -0.0627432817627189 -0.040532029215157035 -0.04014279156724971 0.005900749404282769 -0.083305991456060727 -0.065928944503694464 -0.047202462490275383 -0.039126994262194209 -0.072854119994245195
leaf_weight=400.52398218214512 12.372290864586828 71.701010197401047 530.89018125832081 11.293355852365492 7.0714956969022733 10.096191659569739 5.3631501346826607 11.014229089021681 96.628966569900513 85.670650899410248 12.558274939656259 10.202417060732843 7.1968104094266891 5.6008640378713599 4.3632771074771863 11.936149030923842 23.309817612171173 8.3052448332309741 10.143674492835997 7.6845069676637641 7.4247571974992779 17.000559657812119 5.9695477336645109 6.9638753682375016 82.560107663273811 6.9645953029394132 301.63551703095436 13.453664094209669 26.32655955851078 20.511365473270416 4.4255698472261429 72.878087118268013 6.2211852967739087 3.5432251691818264 5.9039606899023047 4.3668183982372284 91.171198651194572 3.9049590528011322 8.7813421338796598 11.500461101531981 5.8683650195598593 32.388703271746635 10.288503021001814 5.4914010912179929 3.8883342146873474 51.50718766450882 11.59973284602165 14.540715634822844 4.6300527155399314 4.877532109618187 14.490061700344084 4.1582587957382202 3.4729118347167969 8.4889230877161008 12.132516846060751 20.185436770319939 9.5267744958400744 25.593030899763107 32.655219033360481 20.327270731329918 20.145631238818169 231.97820207476616
leaf_count=720 20 130 3870 70 19 19 25 27 228 542 44 25 31 19 19 41 53 41 36 50 24 39 30 20 222 26 478 90 47 49 23 118 29 18 19 27 147 16 25 23 34 107 26 20 20 91 21 32 19 27 84 27 15 20 26 46 28 43 65 45 49 394
internal_value=-0.0318429 -0.0621086 0.0424163 0.015628 -0.0421423 0.021714 -0.015753 -0.0707956 -0.0601551 0.0303774 0.0159667 -0.0298073 0.0131421 0.00909756 -0.0210319 -0.0564224 -0.031954 -0.0183061 0.0129459 0.0224529 -0.0371221 -0.0323168 -0.0282998 -0.00589283 -0.0357454 -0.0134515 -0.0733245 0.0314928 -0.0584065 -0.0557392 0.0242909 -0.0700627 0.0225294 0.0131131 0.00264609 0.0237448 -0.069122 0.0436576 -0.0550903 -0.027922 -0.00661425 -0.0357242 -0.0242648 -0.00899037 0.0297057 -0.0611224 -0.0628076 -0.0656909 -0.0112864 0.00442794 0.0343946 0.00895705 0.0298503 -0.0404656 -0.066895 -0.0498408 -0.0528429 -0.0642737 -0.046512 -0.0302566 -0.0557029 -0.0772925
internal_weight=2593.67 1842.66 751.01 220.12 558.648 207.748 39.0155 1284.01 246.569 168.732 83.0618 299.739 14.2683 28.9193 24.5527 258.908 285.471 78.4089 18.4489 23.3184 207.062 163.371 146.371 36.5066 109.864 27.3038 1037.44 58.5091 246.972 220.646 11.3902 149.94 45.0554 33.7621 15.6339 9.72997 503.828 9.87451 43.6909 59.9599 16.0708 43.8892 26.6321 16.3436 9.37974 77.0621 34.9096 66.0479 15.7288 11.0987 18.0333 11.9944 7.63117 15.9137 412.656 148.945 128.433 45.7785 82.6549 29.854 52.8009 533.614
internal_count=8738 3705 5033 1163 1444 1143 159 2261 496 984 442 901 50 140 105 543 851 266 77 121 585 486 447 132 315 93 1765 337 502 455 49 268 247 177 71 52 893 46 99 189 59 130 86 60 40 150 74 123 75 56 102 61 42 44 746 325 276 89 187 73 114 872
is_linear=0
shrinkage=0.05


Tree=12
num_leaves=63
num_cat=0
split_feature=2 6 4 2 4 8 2 0 6 2 2 4 6 8 8 5 0 4 2 5 0 8 0 6 6 8 5 8 2 4 2 8 8 4 4 7 5 5 8 6 7 4 4 7 8 8 8 6 0 5 2 8 8 7 7 7 0 4 2 5 2 5
split_gain=2121.36 131.173 120.147 35.8536 30.1898 23.2232 16.2378 15.3523 14.8051 13.8036 13.4361 14.2368 9.2921 9.10911 7.74784 7.64417 22.1296 7.32841 8.68966 9.66854 8.93422 14.5266 7.464 7.45467 9.04456 7.05532 6.78286 6.04721 5.98742 5.79694 5.66242 5.26806 12.044 6.61184 16.2485 10.0968 5.06723 5.72435 4.8604 4.85825 4.78376 4.50422 9.39169 8.19933 6.90674 8.40559 4.43131 3.97889 3.94485 10.0184 3.93038 4.45744 5.45704 6.74814 6.74845 5.45528 3.6961 3.65844 3.65344 3.55869 3.51226 6.03549
threshold=6.5000000000000009 0.61976599693298351 2.5000000000000004 2.5000000000000004 1.5000000000000002 0.17731275409460071 7.5000000000000009 11984.000000000002 0.43260456621646887 9.5000000000000018 2.5000000000000004 1.0000000180025095e-35 0.27017162740230566 0.00098214289755560479 0.029456018470227722 21.500000000000004 70.500000000000014 60.500000000000007 3.5000000000000004 1.5000000000000002 13.500000000000002 0.0022693453356623654 147.50000000000003 11.088889122009279 7.026315689086915 0.0048958333209156999 1.0000000180025095e-35 0.054791666567325599 3.5000000000000004 233.50000000000003 5.5000000000000009 0.0044543652329593906 0.0019193672924302521 10.500000000000002 6.5000000000000009 1.4992877244949343 2.5000000000000004 5.5000000000000009 0.0042013889178633699 12.199999809265138 1.9718941450119021 132.50000000000003 450.50000000000006 1.4291146397590639 0.15673610568046573 0.39190104603767401 0.0020013503963127737 0.66622105240821849 32.500000000000007 148.50000000000003 1.5000000000000002 0.0064959488809108743 0.0013541666558012368 1.2697504758834841 1.9999305009841921 1.0835077166557314 8.5000000000000018 5.5000000000000009 4.5000000000000009 2.5000000000000004 9.5000000000000018 188.50000000000003
decision_type=2 2 2 2 2 2 2 2 2 2 2 2 2 2 2 2 2 2 2 2 2 2 2 2 2 2 2 2 2 2 2 2 2 2 2 2 2 2 2 2 2 2 2 2 2 2 2 2 2 2 2 2 2 2 2 2 2 2 2 2 2 2
left_child=2 4 10 14 -2 6 25 -7 30 -3 26 38 -8 58 29 -14 -17 18 19 20 21 -15 28 24 31 -6 46 60 -19 50 48 32 36 34 -34 -35 57 -38 59 -22 -16 -24 43 -43 -44 -46 -1 -13 -5 -50 -4 52 -52 56 -55 -53 -54 -20 -10 -12 -18 -62
right_child=1 9 3 8 5 7 12 -9 13 -11 11 47 15 17 40 16 27 22 23 -21 39 -23 41 -25 -26 -27 -28 -29 -30 -31 -32 -33 33 35 -36 -37 37 -39 -40 -41 -42 42 44 -45 45 -47 -48 -49 49 -51 51 55 53 54 -56 -57 -58 -59 -60 -61 61 -63
leaf_value=-0.063569258191484054 -0.082523757154655944 0.036480495466641241 -0.060339642118178952 -0.088469117844071327 -0.046565086044260413 -0.08595283242872194 0.062887213404165296 0.0037607978876107884 -0.0050575530144736595 0.054494769021897815 -0.031941253860834531 -0.036103628032211947 0.050509538183280245 -0.035207663252845821 -0.0031603771533141528 -0.080588499961132556 0.062560415579961184 -0.010552475410014209 0.013151801137803482 -0.070060577507873881 -0.077146152458041725 0.064473129463825371 -0.051470231923707546 0.019203392661186321 -0.082528121612135893 0.01118227505986772 -0.074204103483851147 -0.017775834777827924 0.06698804694369459 -0.084044976166599575 -0.026986677450996234 -0.044632606489764304 0.03921588405550494 0.073434552815759058 -0.063117376546808421 -0.014003402874037653 -0.060848111060957367 -0.013904027534314245 -0.076265912887160017 -0.030617863510282031 -0.046752433765504697 -0.022541356374219751 -0.048350039120559574 0.056653679075109833 0.04782301574419684 -0.033733809750366557 -0.074887011386026145 -0.058764368890895813 -0.022306687400514454 -0.08441902231687505 -0.063442017708618265 -0.018732736051119064 -0.030802085631161977 -0.076971125090199322 -0.029891574756904571 -0.077613519499689934 0.01106340178148931 -0.036344975662418059 0.048456214693485627 -0.062607677576428086 -0.019171662175695131 0.060726884264809967
leaf_weight=389.56635816395283 12.330088064074515 136.4171791523695 118.05269633233547 10.801877886056898 13.259424194693567 11.323762834072115 13.715723201632498 8.2377572506666166 7.5711565911769849 482.31716430187225 11.047662168741224 70.333211645483971 11.359850987792013 10.908702582120897 11.308430776000025 6.3530660569667843 8.431882262229923 4.8749140650033933 8.3581585735082609 24.385749891400337 9.6451711058616656 5.4965787529945365 8.5074767619371396 9.930182069540022 6.6564882546663275 8.7993065565824491 528.16789969801903 6.3288651108741751 5.0878680050373077 17.594466328620911 15.429231345653532 20.43724213540554 7.5935594290494937 7.4893704503774625 7.9296676069498062 5.9045113921165466 18.895881280303005 9.8941801786422712 72.201516687870026 13.411153137683867 14.191712751984594 5.6672713309526426 16.889436140656475 7.7209748327732086 5.4012948572635633 7.6110683530569077 111.16718800365925 26.734159395098686 13.347324058413507 12.640214949846266 19.421263843774796 4.9546626359224346 10.845096841454508 11.799450263381003 21.446504339575768 19.091852024197578 10.258996218442915 6.7466199845075598 5.5109483748674393 65.840821012854576 5.0508819669485092 4.4425269365310669
leaf_count=710 20 869 228 20 38 22 86 39 23 3688 27 173 72 27 37 20 54 18 30 48 18 33 26 40 15 38 872 28 28 29 47 55 33 36 23 19 44 30 118 38 36 20 45 37 24 25 183 55 36 21 36 13 26 21 51 35 31 18 24 123 28 31
internal_value=-0.0306036 0.0415913 -0.0592636 -0.0399519 -0.00881664 0.000523413 0.0127764 -0.0481726 -0.028209 0.050523 -0.0677408 -0.0572472 0.027159 -0.0231238 -0.0535894 0.0154823 0.0024819 -0.0253803 -0.0306405 -0.0453093 -0.0300139 -0.00180968 -0.0105873 -0.0221136 -0.0262203 -0.0235295 -0.0702513 0.0242411 0.0290465 -0.0564476 -0.0524109 -0.0222009 -0.0159046 0.00914973 -0.0130586 0.0348887 -0.0324099 -0.044715 -0.0669497 -0.0500821 -0.0274209 -0.0182105 -0.0116742 0.0231303 -0.0272575 0.000119569 -0.0660819 -0.0423448 -0.0630736 -0.0525178 -0.0541983 -0.0467866 -0.0406928 -0.0325637 -0.0466008 -0.0654814 -0.0104507 -0.00895617 0.0174856 -0.0582014 0.039076 0.0182176
internal_weight=2563.14 728.367 1834.77 559.709 109.633 97.303 77.7415 19.5615 300.744 618.734 1275.06 246.157 55.6828 248.526 258.965 41.9671 30.6072 235.444 173.683 63.8474 39.4616 16.4053 61.7603 109.836 99.9057 22.0587 1028.9 24.2542 9.96278 233.465 52.2186 93.2492 72.8119 28.9171 15.5232 13.3939 43.8948 28.7901 149.09 23.0563 25.5001 51.7975 43.29 13.3882 29.9018 13.0124 500.734 97.0674 36.7894 25.9875 215.871 97.8178 73.7713 54.35 33.246 24.0465 21.1041 15.1048 13.0821 76.8885 17.9253 9.49341
internal_count=8738 5033 3705 1444 476 456 395 61 901 4557 2261 496 319 777 543 233 161 730 507 164 116 60 223 343 303 76 1765 141 46 470 124 288 233 111 56 55 122 74 268 56 73 177 151 57 94 49 893 228 77 57 441 213 165 129 72 48 57 48 47 150 113 59
is_linear=0
shrinkage=0.05


Tree=13
num_leaves=63
num_cat=0
split_feature=2 6 4 2 4 2 6 0 7 2 4 2 0 7 6 2 2 5 5 4 5 5 5 7 7 0 0 0 6 6 6 4 2 6 6 6 5 0 5 6 6 0 7 7 3 3 2 4 0 4 6 5 0 0 5 7 2 3 2 2 5 6
split_gain=1933.73 124.416 113.324 32.7152 27.4484 13.9563 13.2514 13.2468 24.9376 13.1133 13.5333 11.7558 10.9155 11.8893 10.7078 16.7938 8.11468 7.75289 7.31078 11.7273 6.68558 6.43782 11.0153 6.25042 5.65277 9.67308 5.59655 10.4612 8.95714 5.31182 6.87119 8.91282 5.14022 5.11537 6.39445 5.8059 4.75643 6.37995 3.89898 3.60137 3.5378 4.6152 3.52069 7.10516 4.7805 8.16184 9.61021 7.65175 8.20608 7.51766 5.85422 4.07816 3.78985 6.10493 3.48935 3.43171 3.24943 3.0576 2.95417 2.83388 4.25722 2.77968
threshold=6.5000000000000009 0.61976599693298351 2.5000000000000004 2.5000000000000004 1.5000000000000002 9.5000000000000018 0.43260456621646887 1243.5000000000002 1.0012370944023135 2.5000000000000004 1.0000000180025095e-35 9.5000000000000018 151.50000000000003 1.9999305009841921 0.38284313678741461 8.5000000000000018 4.5000000000000009 2.5000000000000004 1.0000000180025095e-35 40.500000000000007 1.0000000180025095e-35 4.5000000000000009 13.500000000000002 1.0890873074531557 1.2697504758834841 3.5000000000000004 13.500000000000002 10.500000000000002 11.088889122009279 0.82118660211563121 2.0721004009246831 40.500000000000007 5.5000000000000009 0.85733488202095043 1.5023148059844973 2.7827744483947758 3.5000000000000004 19.500000000000004 2.5000000000000004 0.66622105240821849 0.13700352609157565 53.500000000000007 7.595454454421998 5.3971831798553476 8.5000000000000018 6.5000000000000009 7.5000000000000009 6.5000000000000009 267.50000000000006 779.50000000000011 1.7275673747062685 77.500000000000014 30.500000000000004 23.500000000000004 4355.5000000000009 1.1805263161659243 1.5000000000000002 72.500000000000014 5.5000000000000009 9.5000000000000018 188.50000000000003 2.5052083730697636
decision_type=2 2 2 2 2 2 2 2 2 2 2 2 2 2 2 2 2 2 2 2 2 2 2 2 2 2 2 2 2 2 2 2 2 2 2 2 2 2 2 2 2 2 2 2 2 2 2 2 2 2 2 2 2 2 2 2 2 2 2 2 2 2
left_child=2 4 9 24 -2 42 32 12 -9 20 38 54 13 14 -6 -16 17 26 19 -18 -1 36 23 -23 25 -4 27 -8 -28 -19 -31 -32 40 -24 -35 -36 37 -20 -11 -12 -5 -42 43 44 45 46 47 -3 50 52 55 -47 53 -48 -10 -49 -22 -13 -21 -14 -61 -25
right_child=1 5 3 6 7 -7 16 8 11 10 39 57 59 -15 15 -17 18 29 21 58 56 22 33 61 -26 -27 28 -29 -30 30 31 -33 -34 34 35 -37 -38 -39 -40 -41 41 -43 -44 -45 -46 51 49 48 -50 -51 -52 -53 -54 -55 -56 -57 -58 -59 -60 60 -62 -63
leaf_value=-0.0633017210584053 -0.078936169951061702 0.062569166669246293 -0.075287068659533329 -0.080087990336356468 0.05400719495690566 0.053837211041413403 -0.0198186206359959 -0.093962579251018044 -0.0018436627659807235 -0.037316838821942776 -0.034175437588941468 0.0096218975746578811 0.062510698849829877 -0.051536958410534267 -0.042317101743165234 0.046085674230334682 0.069405907225170274 -0.018773924198891234 0.00077103817709229432 -0.038117588571711783 -0.074875514781299196 -0.011011148215863124 -0.047500504476843147 0.059598725249378384 -0.05618454208375754 -0.032385886821281455 -0.061084502728231106 0.048153432334470253 -0.01711887083801068 -0.074518849865362294 -0.056212476425843719 0.022755596593443842 -0.025454137962360734 0.033439870892449805 -0.051887660819230352 0.0096427738922863285 -0.066073420052053564 -0.050808823664557669 -0.066562264920461467 -0.0557079004074729 -0.064603501603845565 -0.018298683725720934 0.060477399721794306 -0.028059603587571626 0.055163088378722025 -0.045346696969427572 0.04420025334822706 0.035047429870617097 0.060064750506801358 -0.031855044057749991 -0.055850233268998142 0.024152564052145747 0.060082766684235601 -0.034165224585393401 -0.050544076246296692 -0.026257998737529077 -0.066916616698163831 0.061049993311485175 0.010157149395339982 -0.017043701857280782 0.060203917793077981 0.01048948308815012
leaf_weight=496.69208626449108 12.247927799820898 5.280577257275584 16.196796163916588 13.526879996061323 11.246995776891707 464.2561217173934 25.241365745663643 9.309058874845503 6.7332758158445367 12.443057700991629 70.579664260149002 5.1442273706197739 11.28076493740082 8.6380335688590986 13.036721840500833 9.1378644257783872 6.7165936082601574 13.565411791205404 12.626307621598245 5.911691799759863 294.27288655936718 9.38312014937401 14.70143088698387 8.3891129493713361 172.83942480385303 69.599138408899307 16.833057075738907 7.2970168441534033 37.155020579695702 20.699010938405991 11.324774250388147 5.2202257364988318 15.537397190928457 6.2388794422149685 9.2367708534002286 6.5541646480560294 9.1523634344339353 11.415132761001585 135.51384130120277 26.789253547787666 14.970280081033708 8.4009799063205701 12.742749154567717 4.6061931997537604 23.942959949374199 5.0181751549243909 17.168798714876178 4.6966794282198006 3.8830534219741812 2.9404779970645896 6.8654231429100028 3.6432264000177383 35.182500094175339 2.9058984965085974 8.1059406101703626 4.4413447082042694 227.30667397379875 6.5958406329154968 6.8310286402702332 3.5061985552310935 3.6303317621350288 4.3888970315456381
leaf_count=893 20 33 27 23 64 3688 70 16 27 29 173 29 73 27 45 62 34 36 45 19 478 33 39 37 347 169 35 42 121 41 26 21 47 25 25 27 21 31 239 55 32 22 90 26 165 24 119 26 28 16 30 22 254 17 22 19 394 45 30 20 26 19
internal_value=-0.029452 0.0407952 -0.0566559 -0.0379318 -0.00843172 0.0497425 -0.0267348 0.00052932 -0.0235355 -0.0649533 -0.054576 0.00113066 0.0148099 0.000753432 0.0142682 -0.00588744 -0.0219219 -0.0300585 -0.011904 0.0159418 -0.0674534 -0.0177883 -0.00786304 0.0199764 -0.0509766 -0.0404849 -0.020955 -0.00457529 -0.030827 -0.0455614 -0.0553182 -0.0312967 -0.0495788 -0.0246594 -0.00941664 -0.0263489 -0.0353976 -0.0237196 -0.0641027 -0.0400997 -0.0597374 -0.0479589 0.0354833 0.0328419 0.0352608 0.0300827 0.0348824 0.00906685 -0.00513993 0.0460461 -0.0209611 -0.0161134 0.0501916 0.0328565 -0.0284463 0.00525121 -0.071407 0.0385154 -0.0122388 0.0469108 0.0222519 0.042731
internal_weight=2529.74 706.187 1823.55 559.952 108.613 597.574 301.317 96.3653 35.8883 1263.6 245.326 26.5793 60.4769 42.0596 33.4216 22.1746 248.881 137.336 111.545 19.4593 1018.27 92.0862 58.8924 22.1611 258.635 85.7959 86.5265 32.5384 53.9881 50.8094 37.244 16.545 52.4355 36.7312 22.0298 15.7909 33.1938 24.0414 147.957 97.3689 36.8981 23.3713 133.318 120.575 115.969 92.0262 83.3648 25.1671 19.8865 58.1977 16.0034 8.6614 55.2572 20.0747 14.8392 9.13802 521.58 11.7401 12.7427 18.4173 7.13653 12.778
internal_count=8738 5033 3705 1444 476 4557 901 456 139 2261 496 123 317 198 171 107 777 392 385 83 1765 302 205 89 543 196 268 112 156 124 88 47 124 116 77 52 97 76 268 228 77 54 869 779 753 588 542 136 103 406 75 46 390 136 49 45 872 74 49 119 46 56
is_linear=0
shrinkage=0.05


Tree=14
num_leaves=63
num_cat=0
split_feature=2 6 4 2 4 8 2 2 2 4 0 6 6 8 8 5 0 5 3 0 4 2 5 0 6 6 8 2 8 4 2 8 8 8 4 4 5 0 3 8 8 4 4 3 8 0 6 2 0 5 0 0 6 6 8 0 2 3 3 3 2 0
split_gain=1765.38 118.032 107.478 29.9045 25.0341 19.7503 14.1945 14.0065 12.863 12.8897 12.7931 11.9027 8.74022 8.00716 7.24181 7.18873 19.0899 6.63977 6.61109 9.00232 6.39913 7.60907 8.10856 6.61598 6.22791 7.7583 6.01725 5.583 4.87567 4.85251 4.68262 4.5131 4.44078 10.6771 6.03989 14.1623 4.238 4.86514 3.99553 5.1293 9.99364 3.89562 8.41873 7.89908 6.21109 7.6517 3.88194 3.69329 3.48782 3.39867 9.10388 3.32701 3.27683 3.27598 3.25373 3.23635 3.16346 3.13825 3.13388 7.09941 9.28497 7.58616
threshold=6.5000000000000009 0.61976599693298351 2.5000000000000004 2.5000000000000004 1.5000000000000002 0.17731275409460071 7.5000000000000009 9.5000000000000018 2.5000000000000004 1.0000000180025095e-35 11984.000000000002 0.43260456621646887 0.27017162740230566 0.00098214289755560479 0.094826389104127898 21.500000000000004 70.500000000000014 1.0000000180025095e-35 9.5000000000000018 329.50000000000006 60.500000000000007 3.5000000000000004 2.5000000000000004 147.50000000000003 11.088889122009279 7.026315689086915 0.0048958333209156999 3.5000000000000004 0.0042013889178633699 233.50000000000003 5.5000000000000009 0.0020013503963127737 0.0044543652329593906 0.0019193672924302521 10.500000000000002 6.5000000000000009 2.5000000000000004 15.500000000000002 2.5000000000000004 0.0022693453356623654 0.0031442901818081741 132.50000000000003 450.50000000000006 4.5000000000000009 0.15673610568046573 8366.5000000000018 0.83138394355773937 3.5000000000000004 2900.0000000000005 148.50000000000003 32.500000000000007 3.5000000000000004 2.385741233825684 0.66622105240821849 0.0076736111659556636 3.5000000000000004 1.5000000000000002 1.5000000000000002 8.5000000000000018 6.5000000000000009 7.5000000000000009 2091.5000000000005
decision_type=2 2 2 2 2 2 2 2 2 2 2 2 2 2 2 2 2 2 2 2 2 2 2 2 2 2 2 2 2 2 2 2 2 2 2 2 2 2 2 2 2 2 2 2 2 2 2 2 2 2 2 2 2 2 2 2 2 2 2 2 2 2
left_child=2 4 8 14 -2 6 26 58 17 28 -7 30 -8 47 29 -14 -17 31 19 -18 21 22 38 27 25 32 -6 -22 55 51 49 -1 33 36 35 -35 52 46 39 -15 -41 -25 43 -43 48 -46 -38 -13 -44 50 -5 -4 -23 -11 -32 -10 -19 -53 59 60 -3 -62
right_child=1 7 3 11 5 10 12 -9 9 53 -12 13 15 20 -16 16 18 56 -20 -21 23 24 -24 41 -26 -27 -28 -29 -30 -31 54 -33 -34 34 -36 -37 37 -39 -40 40 -42 42 44 -45 45 -47 -48 -49 -50 -51 -52 57 -54 -55 -56 -57 -58 -59 -60 -61 61 -63
leaf_value=-0.058188469049426053 -0.075723463938776825 0.0087106555717451958 -0.064245333151425721 -0.079625447671177574 -0.04263668238727894 -0.079428785709622224 0.061749513158930305 0.053202237541913749 -0.082883781000516576 -0.032375818629723468 0.0031098418757700293 -0.014522678028456137 0.049378447423262174 -0.042250471431371991 -0.010976948135692912 -0.073452773581483222 0.040124348938613066 -0.072315597334915424 0.050669123298343215 -0.045369999800897128 -0.0091976321610837772 0.018703568962234973 -0.070243601379303522 -0.046809272872597549 0.018188904254421469 -0.075158901931234007 0.010708044659463647 0.066107299211360382 -0.070946243333715256 -0.070711445466548159 -0.0027225843037266351 -0.069739668004571667 -0.040243399439374904 0.038278697123828143 0.03446409377967926 -0.057045814949259338 -0.029221853741389622 -0.0063764029456212235 -0.051435603449681122 0.048053878991085985 -0.031626201394506219 -0.022374560578860152 -0.065182980283643291 0.05561896328095442 0.035574901969875387 -0.041364799537032704 -0.071999819816222069 0.039700105992507236 -0.019826181111383692 -0.077791265396943116 -0.018202138187017096 -0.032215262755013789 -0.028307654222756686 -0.052902061760620372 -0.048446897077588702 -0.049177920668226321 -0.064406730238896287 -0.048680332227334283 0.046361454209244736 -0.012585772008391808 0.049476950810508055 -0.034123300938478283
